{"learner":{"attributes":{"best_iteration":"2499","best_ntree_limit":"2500","scikit_learn":"{\"use_label_encoder\": true, \"n_estimators\": 2500, \"objective\": \"binary:logistic\", \"max_depth\": 5, \"learning_rate\": 0.1, \"verbosity\": null, \"booster\": null, \"tree_method\": null, \"gamma\": null, \"min_child_weight\": 1, \"max_delta_step\": null, \"subsample\": 0.7, \"colsample_bytree\": 0.8, \"colsample_bylevel\": null, \"colsample_bynode\": null, \"reg_alpha\": null, \"reg_lambda\": 1, \"scale_pos_weight\": 0.4, \"base_score\": null, \"missing\": NaN, \"num_parallel_tree\": null, \"random_state\": null, \"n_jobs\": null, \"monotone_constraints\": null, \"interaction_constraints\": null, \"importance_type\": null, \"gpu_id\": null, \"validate_parameters\": null, \"predictor\": null, \"enable_categorical\": false, \"kwargs\": {\"eta\": 0.05, \"nthread\": 4, \"seed\": 27}, \"classes_\": [0, 1], \"n_classes_\": 2, \"_le\": {\"classes_\": [0, 1]}, \"_estimator_type\": \"classifier\"}"},"feature_names":[" E30"," E90"," E240"," E600"," E1500"," E3600"," E7200"," E14400"," E72000"," E144000"],"feature_types":["float","float","float","float","float","float","float","float","float","float"],"gradient_booster":{"model":{"gbtree_model_param":{"num_trees":"2500","size_leaf_vector":"0"},"tree_info":[0,0,0,0,0,0,0,0,0,0,0,0,0,0,0,0,0,0,0,0,0,0,0,0,0,0,0,0,0,0,0,0,0,0,0,0,0,0,0,0,0,0,0,0,0,0,0,0,0,0,0,0,0,0,0,0,0,0,0,0,0,0,0,0,0,0,0,0,0,0,0,0,0,0,0,0,0,0,0,0,0,0,0,0,0,0,0,0,0,0,0,0,0,0,0,0,0,0,0,0,0,0,0,0,0,0,0,0,0,0,0,0,0,0,0,0,0,0,0,0,0,0,0,0,0,0,0,0,0,0,0,0,0,0,0,0,0,0,0,0,0,0,0,0,0,0,0,0,0,0,0,0,0,0,0,0,0,0,0,0,0,0,0,0,0,0,0,0,0,0,0,0,0,0,0,0,0,0,0,0,0,0,0,0,0,0,0,0,0,0,0,0,0,0,0,0,0,0,0,0,0,0,0,0,0,0,0,0,0,0,0,0,0,0,0,0,0,0,0,0,0,0,0,0,0,0,0,0,0,0,0,0,0,0,0,0,0,0,0,0,0,0,0,0,0,0,0,0,0,0,0,0,0,0,0,0,0,0,0,0,0,0,0,0,0,0,0,0,0,0,0,0,0,0,0,0,0,0,0,0,0,0,0,0,0,0,0,0,0,0,0,0,0,0,0,0,0,0,0,0,0,0,0,0,0,0,0,0,0,0,0,0,0,0,0,0,0,0,0,0,0,0,0,0,0,0,0,0,0,0,0,0,0,0,0,0,0,0,0,0,0,0,0,0,0,0,0,0,0,0,0,0,0,0,0,0,0,0,0,0,0,0,0,0,0,0,0,0,0,0,0,0,0,0,0,0,0,0,0,0,0,0,0,0,0,0,0,0,0,0,0,0,0,0,0,0,0,0,0,0,0,0,0,0,0,0,0,0,0,0,0,0,0,0,0,0,0,0,0,0,0,0,0,0,0,0,0,0,0,0,0,0,0,0,0,0,0,0,0,0,0,0,0,0,0,0,0,0,0,0,0,0,0,0,0,0,0,0,0,0,0,0,0,0,0,0,0,0,0,0,0,0,0,0,0,0,0,0,0,0,0,0,0,0,0,0,0,0,0,0,0,0,0,0,0,0,0,0,0,0,0,0,0,0,0,0,0,0,0,0,0,0,0,0,0,0,0,0,0,0,0,0,0,0,0,0,0,0,0,0,0,0,0,0,0,0,0,0,0,0,0,0,0,0,0,0,0,0,0,0,0,0,0,0,0,0,0,0,0,0,0,0,0,0,0,0,0,0,0,0,0,0,0,0,0,0,0,0,0,0,0,0,0,0,0,0,0,0,0,0,0,0,0,0,0,0,0,0,0,0,0,0,0,0,0,0,0,0,0,0,0,0,0,0,0,0,0,0,0,0,0,0,0,0,0,0,0,0,0,0,0,0,0,0,0,0,0,0,0,0,0,0,0,0,0,0,0,0,0,0,0,0,0,0,0,0,0,0,0,0,0,0,0,0,0,0,0,0,0,0,0,0,0,0,0,0,0,0,0,0,0,0,0,0,0,0,0,0,0,0,0,0,0,0,0,0,0,0,0,0,0,0,0,0,0,0,0,0,0,0,0,0,0,0,0,0,0,0,0,0,0,0,0,0,0,0,0,0,0,0,0,0,0,0,0,0,0,0,0,0,0,0,0,0,0,0,0,0,0,0,0,0,0,0,0,0,0,0,0,0,0,0,0,0,0,0,0,0,0,0,0,0,0,0,0,0,0,0,0,0,0,0,0,0,0,0,0,0,0,0,0,0,0,0,0,0,0,0,0,0,0,0,0,0,0,0,0,0,0,0,0,0,0,0,0,0,0,0,0,0,0,0,0,0,0,0,0,0,0,0,0,0,0,0,0,0,0,0,0,0,0,0,0,0,0,0,0,0,0,0,0,0,0,0,0,0,0,0,0,0,0,0,0,0,0,0,0,0,0,0,0,0,0,0,0,0,0,0,0,0,0,0,0,0,0,0,0,0,0,0,0,0,0,0,0,0,0,0,0,0,0,0,0,0,0,0,0,0,0,0,0,0,0,0,0,0,0,0,0,0,0,0,0,0,0,0,0,0,0,0,0,0,0,0,0,0,0,0,0,0,0,0,0,0,0,0,0,0,0,0,0,0,0,0,0,0,0,0,0,0,0,0,0,0,0,0,0,0,0,0,0,0,0,0,0,0,0,0,0,0,0,0,0,0,0,0,0,0,0,0,0,0,0,0,0,0,0,0,0,0,0,0,0,0,0,0,0,0,0,0,0,0,0,0,0,0,0,0,0,0,0,0,0,0,0,0,0,0,0,0,0,0,0,0,0,0,0,0,0,0,0,0,0,0,0,0,0,0,0,0,0,0,0,0,0,0,0,0,0,0,0,0,0,0,0,0,0,0,0,0,0,0,0,0,0,0,0,0,0,0,0,0,0,0,0,0,0,0,0,0,0,0,0,0,0,0,0,0,0,0,0,0,0,0,0,0,0,0,0,0,0,0,0,0,0,0,0,0,0,0,0,0,0,0,0,0,0,0,0,0,0,0,0,0,0,0,0,0,0,0,0,0,0,0,0,0,0,0,0,0,0,0,0,0,0,0,0,0,0,0,0,0,0,0,0,0,0,0,0,0,0,0,0,0,0,0,0,0,0,0,0,0,0,0,0,0,0,0,0,0,0,0,0,0,0,0,0,0,0,0,0,0,0,0,0,0,0,0,0,0,0,0,0,0,0,0,0,0,0,0,0,0,0,0,0,0,0,0,0,0,0,0,0,0,0,0,0,0,0,0,0,0,0,0,0,0,0,0,0,0,0,0,0,0,0,0,0,0,0,0,0,0,0,0,0,0,0,0,0,0,0,0,0,0,0,0,0,0,0,0,0,0,0,0,0,0,0,0,0,0,0,0,0,0,0,0,0,0,0,0,0,0,0,0,0,0,0,0,0,0,0,0,0,0,0,0,0,0,0,0,0,0,0,0,0,0,0,0,0,0,0,0,0,0,0,0,0,0,0,0,0,0,0,0,0,0,0,0,0,0,0,0,0,0,0,0,0,0,0,0,0,0,0,0,0,0,0,0,0,0,0,0,0,0,0,0,0,0,0,0,0,0,0,0,0,0,0,0,0,0,0,0,0,0,0,0,0,0,0,0,0,0,0,0,0,0,0,0,0,0,0,0,0,0,0,0,0,0,0,0,0,0,0,0,0,0,0,0,0,0,0,0,0,0,0,0,0,0,0,0,0,0,0,0,0,0,0,0,0,0,0,0,0,0,0,0,0,0,0,0,0,0,0,0,0,0,0,0,0,0,0,0,0,0,0,0,0,0,0,0,0,0,0,0,0,0,0,0,0,0,0,0,0,0,0,0,0,0,0,0,0,0,0,0,0,0,0,0,0,0,0,0,0,0,0,0,0,0,0,0,0,0,0,0,0,0,0,0,0,0,0,0,0,0,0,0,0,0,0,0,0,0,0,0,0,0,0,0,0,0,0,0,0,0,0,0,0,0,0,0,0,0,0,0,0,0,0,0,0,0,0,0,0,0,0,0,0,0,0,0,0,0,0,0,0,0,0,0,0,0,0,0,0,0,0,0,0,0,0,0,0,0,0,0,0,0,0,0,0,0,0,0,0,0,0,0,0,0,0,0,0,0,0,0,0,0,0,0,0,0,0,0,0,0,0,0,0,0,0,0,0,0,0,0,0,0,0,0,0,0,0,0,0,0,0,0,0,0,0,0,0,0,0,0,0,0,0,0,0,0,0,0,0,0,0,0,0,0,0,0,0,0,0,0,0,0,0,0,0,0,0,0,0,0,0,0,0,0,0,0,0,0,0,0,0,0,0,0,0,0,0,0,0,0,0,0,0,0,0,0,0,0,0,0,0,0,0,0,0,0,0,0,0,0,0,0,0,0,0,0,0,0,0,0,0,0,0,0,0,0,0,0,0,0,0,0,0,0,0,0,0,0,0,0,0,0,0,0,0,0,0,0,0,0,0,0,0,0,0,0,0,0,0,0,0,0,0,0,0,0,0,0,0,0,0,0,0,0,0,0,0,0,0,0,0,0,0,0,0,0,0,0,0,0,0,0,0,0,0,0,0,0,0,0,0,0,0,0,0,0,0,0,0,0,0,0,0,0,0,0,0,0,0,0,0,0,0,0,0,0,0,0,0,0,0,0,0,0,0,0,0,0,0,0,0,0,0,0,0,0,0,0,0,0,0,0,0,0,0,0,0,0,0,0,0,0,0,0,0,0,0,0,0,0,0,0,0,0,0,0,0,0,0,0,0,0,0,0,0,0,0,0,0,0,0,0,0,0,0,0,0,0,0,0,0,0,0,0,0,0,0,0,0,0,0,0,0,0,0,0,0,0,0,0,0,0,0,0,0,0,0,0,0,0,0,0,0,0,0,0,0,0,0,0,0,0,0,0,0,0,0,0,0,0,0,0,0,0,0,0,0,0,0,0,0,0,0,0,0,0,0,0,0,0,0,0,0,0,0,0,0,0,0,0,0,0,0,0,0,0,0,0,0,0,0,0,0,0,0,0,0,0,0,0,0,0,0,0,0,0,0,0,0,0,0,0,0,0,0,0,0,0,0,0,0,0,0,0,0,0,0,0,0,0,0,0,0,0,0,0,0,0,0,0,0,0,0,0,0,0,0,0,0,0,0,0,0,0,0,0,0,0,0,0,0,0,0,0,0,0,0,0,0,0,0,0,0,0,0,0,0,0,0,0,0,0,0,0,0,0,0,0,0,0,0,0,0,0,0,0,0,0,0,0,0,0,0,0,0,0,0,0,0,0,0,0,0,0,0,0,0,0,0,0,0,0,0,0,0,0,0,0,0,0,0,0,0,0,0,0,0,0,0,0,0,0,0,0,0,0,0,0,0,0,0,0,0,0,0,0,0,0,0,0,0,0,0,0,0,0,0,0,0,0,0,0,0,0,0,0,0,0,0,0,0,0,0,0,0,0,0,0,0,0,0,0,0,0,0,0,0,0,0,0,0,0,0,0,0,0,0,0,0,0,0,0,0,0,0,0,0,0,0,0,0,0,0,0,0,0,0,0,0,0,0,0,0,0,0,0,0,0,0,0,0,0,0,0,0,0,0,0,0,0,0,0,0,0,0,0,0,0,0,0,0,0,0,0,0,0,0,0,0,0,0,0,0,0,0,0,0,0,0,0,0,0,0,0,0,0,0,0,0,0,0,0,0,0,0,0,0,0,0,0,0,0,0,0,0,0,0,0,0,0,0,0,0,0,0,0,0,0,0,0,0,0,0,0,0,0,0,0,0,0,0,0,0,0,0,0,0,0,0,0,0,0,0,0,0,0,0,0,0,0,0,0,0,0,0,0,0,0,0,0,0,0,0,0,0,0,0,0,0,0,0,0,0,0,0,0,0,0,0,0,0,0,0,0,0,0,0,0,0,0,0,0,0,0,0,0,0,0,0,0,0,0,0,0,0,0,0,0,0,0,0,0,0,0,0,0,0,0,0,0,0,0,0,0,0,0,0,0,0,0,0,0,0,0,0,0,0,0,0,0,0,0,0,0,0,0,0,0,0,0,0,0,0,0,0,0,0,0,0,0,0,0,0,0,0,0,0,0,0,0,0,0,0,0,0,0],"trees":[{"base_weights":[1.24006376E-1,-2.4887554E-1,3.2258067E-1,1.0909091E0,-3.328149E-1,-1.6358837E-1,5.244041E-1,-4.8472503E-1,1.3953489E-1,-5E-1,7.387388E-1,1.2592592E0,1.4569537E-1,4.6153846E-1,-5.708061E-1,-8.5714287E-1,5.294118E-1,8.235294E-1,-7.237354E-1,1.3103448E0,8.2191795E-2,1.8181819E-1,1.389313E0,9.0909094E-1,-1.3507624E-1,-6.771653E-1,-4.0816315E-2,-5E-1,8.888889E-1,-8.085106E-1,9.5238104E-2,-5E-1,6.666667E-1,1.5515695E0,3.0508476E-1,-2.2222221E-1,1.1428572E0,-7.218935E-1,1.935484E-1],"categories":[],"categories_nodes":[],"categories_segments":[],"categories_sizes":[],"default_left":[true,true,true,false,true,true,true,true,true,true,true,true,true,false,true,false,true,false,true,false,true,false,true,true,true,false,false,false,false,false,false,false,false,false,false,false,false,false,false],"id":0,"left_children":[1,3,5,-1,7,9,11,13,15,17,19,21,23,-1,25,-1,27,-1,29,-1,31,-1,33,35,37,-1,-1,-1,-1,-1,-1,-1,-1,-1,-1,-1,-1,-1,-1],"loss_changes":[7.066406E0,4.113634E0,6.1692457E0,0E0,2.3745503E0,6.121705E0,1.2075474E1,2.2631774E0,3.7955832E0,4.860151E0,1.9751394E0,1.8282585E0,6.5958586E0,0E0,1.2660365E0,0E0,2.9607844E0,0E0,9.691596E-1,0E0,1.5753424E0,0E0,1.8312321E0,2.4357862E0,4.565459E0,0E0,0E0,0E0,0E0,0E0,0E0,0E0,0E0,0E0,0E0,0E0,0E0,0E0,0E0],"parents":[2147483647,0,0,1,1,2,2,4,4,5,5,6,6,7,7,8,8,9,9,10,10,11,11,12,12,14,14,16,16,18,18,20,20,22,22,23,23,24,24],"right_children":[2,4,6,-1,8,10,12,14,16,18,20,22,24,-1,26,-1,28,-1,30,-1,32,-1,34,36,38,-1,-1,-1,-1,-1,-1,-1,-1,-1,-1,-1,-1,-1,-1],"split_conditions":[-1.9897038E-1,-2.6701915E-1,-2.3839876E-1,1.0909092E-1,-1.195499E-1,-8.490041E-2,-1.0117433E-1,-2.5189817E-1,-2.4992406E-1,-1.9391517E-1,-1.6417013E-1,-7.9071665E-1,-7.074277E-2,4.6153847E-2,-1.3437957E-1,-8.571429E-2,-4.3563926E-1,8.235294E-2,-2.5002697E-1,1.3103448E-1,-1.4150739E-1,1.818182E-2,8.3721185E-1,-1.8059883E-1,-1.0500299E-1,-6.771653E-2,-4.0816315E-3,-5E-2,8.888889E-2,-8.085106E-2,9.523811E-3,-5E-2,6.666667E-2,1.5515696E-1,3.0508477E-2,-2.222222E-2,1.1428572E-1,-7.218935E-2,1.935484E-2],"split_indices":[9,4,3,0,8,0,1,3,3,7,7,8,8,0,7,0,9,0,4,0,7,0,7,9,7,0,0,0,0,0,0,0,0,0,0,0,0,0,0],"split_type":[0,0,0,0,0,0,0,0,0,0,0,0,0,0,0,0,0,0,0,0,0,0,0,0,0,0,0,0,0,0,0,0,0,0,0,0,0,0,0],"sum_hessian":[9.335E1,3.235E1,6.1E1,1.2E0,3.115E1,1.795E1,4.305E1,2.355E1,7.6E0,1.34E1,4.55E0,1.385E1,2.92E1,1.6E0,2.195E1,1.8E0,5.8E0,1.5500001E0,1.185E1,1.9E0,2.65E0,1.75E0,1.21E1,7.25E0,2.195E1,1.805E1,3.9E0,1.4E0,4.4E0,1.075E1,1.1E0,1.4E0,1.25E0,1.0150001E1,1.95E0,1.25E0,6E0,7.45E0,1.45E1],"tree_param":{"num_deleted":"0","num_feature":"10","num_nodes":"39","size_leaf_vector":"0"}},{"base_weights":[1.4740278E-1,1.0371271E0,6.696421E-2,-1.5009916E-1,1.3152677E0,2.0821947E-1,-3.1967685E-1,1.787731E-1,1.5476595E0,5.842799E-2,1.0919954E0,-4.687203E-1,6.186081E-1,-1.7167485E-1,4.3395722E-1,1.3217158E0,-1.387855E-1,-1.839739E-1,-8.3350843E-1,8.190699E-1,8.060158E-2,-4.612269E-1,3.2949823E-1,7.8783154E-1,-2.5926006E-1,1.5109875E0,8.419404E-2,-8.250738E-1,3.270331E-1,-1.149099E0,2.3386344E-1],"categories":[],"categories_nodes":[],"categories_segments":[],"categories_sizes":[],"default_left":[true,true,true,false,true,true,true,false,false,true,true,true,true,true,true,true,false,true,true,false,false,false,false,false,false,false,false,false,false,false,false],"id":1,"left_children":[1,3,5,-1,7,9,11,-1,-1,13,15,17,19,21,23,25,-1,27,29,-1,-1,-1,-1,-1,-1,-1,-1,-1,-1,-1,-1],"loss_changes":[6.577856E0,2.7176104E0,4.7770505E0,0E0,1.3834667E0,8.378974E0,3.572544E0,0E0,0E0,4.8780093E0,2.7807245E0,2.0097332E0,3.2748163E-1,5.2579374E0,5.454921E0,1.7082891E0,0E0,4.521682E0,3.2484908E0,0E0,0E0,0E0,0E0,0E0,0E0,0E0,0E0,0E0,0E0,0E0,0E0],"parents":[2147483647,0,0,1,1,2,2,4,4,5,5,6,6,9,9,10,10,11,11,12,12,13,13,14,14,15,15,17,17,18,18],"right_children":[2,4,6,-1,8,10,12,-1,-1,14,16,18,20,22,24,26,-1,28,30,-1,-1,-1,-1,-1,-1,-1,-1,-1,-1,-1,-1],"split_conditions":[-2.715752E-1,-1.6134214E-1,-5.3496275E-2,-1.5009916E-2,-3.78509E-1,-1.0790233E-1,1.043164E0,1.787731E-2,1.5476595E-1,-8.4882766E-2,4.481642E-2,4.3519087E-2,1.1057304E0,-2.4942939E-1,-1.8746766E-1,1.1015657E0,-1.3878549E-2,-1.7217007E-1,7.0195514E-1,8.1907E-2,8.060158E-3,-4.6122693E-2,3.2949824E-2,7.8783154E-2,-2.5926007E-2,1.5109876E-1,8.419405E-3,-8.250738E-2,3.270331E-2,-1.149099E-1,2.3386344E-2],"split_indices":[5,1,0,0,9,6,9,0,0,0,1,8,1,4,6,5,0,8,5,0,0,0,0,0,0,0,0,0,0,0,0],"split_type":[0,0,0,0,0,0,0,0,0,0,0,0,0,0,0,0,0,0,0,0,0,0,0,0,0,0,0,0,0,0,0],"sum_hessian":[9.188078E1,6.6319485E0,8.524883E1,1.3461851E0,5.2857637E0,6.277581E1,2.247302E1,1.1977135E0,4.0880504E0,5.4589527E1,8.186286E0,1.9824427E1,2.6485944E0,3.418547E1,2.0404057E1,6.836412E0,1.3498735E0,1.1978543E1,7.845883E0,1.549014E0,1.0995805E0,2.1717766E1,1.2467704E1,1.3417957E1,6.9860992E0,5.7378616E0,1.0985503E0,5.040377E0,6.9381666E0,5.996365E0,1.8495181E0],"tree_param":{"num_deleted":"0","num_feature":"10","num_nodes":"31","size_leaf_vector":"0"}},{"base_weights":[1.6269495E-1,-4.5533487E-1,2.7730072E-1,4.882077E-1,-7.249506E-1,1.2802389E0,2.0608453E-1,-3.664664E-1,1.1744846E0,-1.4826572E-1,-9.556551E-1,-3.2323122E-1,3.2218602E-1,-7.140555E-1,3.7356248E-1,-1.1751072E0,-1.0015592E-1,-6.755498E-1,7.0636797E-1,5.439077E-1,-1.8956892E-1,-1.3274093E0,-3.9726797E-1,-8.042213E-1,1.9980723E-1,8.700631E-2,1.0960972E0,1.3427335E-1,7.599352E-1,-9.837459E-1,1.0881136E-1],"categories":[],"categories_nodes":[],"categories_segments":[],"categories_sizes":[],"default_left":[true,true,true,true,true,false,true,false,false,true,true,true,true,false,false,true,false,true,true,true,true,false,false,false,false,false,false,false,false,false,false],"id":2,"left_children":[1,3,5,7,9,-1,11,-1,-1,13,15,17,19,-1,-1,21,-1,23,25,27,29,-1,-1,-1,-1,-1,-1,-1,-1,-1,-1],"loss_changes":[6.6656814E0,4.1242914E0,5.3434024E0,2.7128992E0,1.4454608E0,0E0,4.6819863E0,0E0,0E0,1.6226271E0,1.4475298E0,5.5190864E0,7.0918465E0,0E0,0E0,2.476635E-1,0E0,1.3846521E0,8.7799716E-1,3.7236862E0,4.694789E0,0E0,0E0,0E0,0E0,0E0,0E0,0E0,0E0,0E0,0E0],"parents":[2147483647,0,0,1,1,2,2,3,3,4,4,6,6,9,9,10,10,11,11,12,12,15,15,17,17,18,18,19,19,20,20],"right_children":[2,4,6,8,10,-1,12,-1,-1,14,16,18,20,-1,-1,22,-1,24,26,28,30,-1,-1,-1,-1,-1,-1,-1,-1,-1,-1],"split_conditions":[-4.1364205E-1,-4.5265564E-1,-3.5072273E-1,-1.4330237E0,-2.4385215E-1,1.280239E-1,-2.590988E-1,-3.664664E-2,1.17448464E-1,-1.6651554E-1,-7.1911894E-2,-8.525333E-2,-2.8058963E-2,-7.140555E-2,3.735625E-2,-1.8169785E-1,-1.0015592E-2,-1.6497117E-1,-1.0056104E-1,-1.2041344E-1,-1.456779E-1,-1.3274093E-1,-3.9726797E-2,-8.0422126E-2,1.9980723E-2,8.700631E-3,1.0960972E-1,1.3427335E-2,7.599352E-2,-9.837459E-2,1.0881136E-2],"split_indices":[9,8,6,9,3,0,4,0,0,2,1,0,1,0,0,8,0,2,8,8,6,0,0,0,0,0,0,0,0,0,0],"split_type":[0,0,0,0,0,0,0,0,0,0,0,0,0,0,0,0,0,0,0,0,0,0,0,0,0,0,0,0,0,0,0],"sum_hessian":[9.132579E1,1.382097E1,7.750482E1,2.8914275E0,1.0929542E1,4.0129943E0,7.349183E1,1.4952651E0,1.3961623E0,3.5923984E0,7.3371434E0,1.289922E1,6.0592606E1,1.5468552E0,2.0455432E0,5.541937E0,1.7952065E0,9.866778E0,3.0324423E0,4.223231E1,1.8360296E1,4.04365E0,1.4982868E0,8.67315E0,1.1936283E0,1.643625E0,1.3888172E0,1.514179E1,2.7090519E1,4.3869414E0,1.3973354E1],"tree_param":{"num_deleted":"0","num_feature":"10","num_nodes":"31","size_leaf_vector":"0"}},{"base_weights":[1.0711473E-1,2.5791273E-1,-3.2495487E-1,-8.808762E-2,5.672065E-1,-4.2716262E-1,9.960873E-1,-2.5000182E-1,6.506663E-1,1.0688728E0,2.768453E-1,-1.7211014E-1,-8.4234536E-1,5.691094E-1,-3.8368767E-1,-3.231008E-1,1.1764524E0,1.2048424E0,1.348283E-1,-4.913189E-1,5.5296844E-1,-4.4212112E-1,1.0329424E0,-1.0487906E0,2.0247112E-1,-5.195049E-1,1.0502031E0,-4.736005E-1,3.177994E-1,3.3401188E-1,1.406627E0,-7.861056E-1,5.668168E-1,1.072387E0,1.8075736E-1,-5.99272E-1,6.3736904E-1,-2.4229673E-1,-1.1701632E0],"categories":[],"categories_nodes":[],"categories_segments":[],"categories_sizes":[],"default_left":[true,true,true,true,true,true,false,true,true,true,true,true,true,true,true,false,false,true,false,true,true,true,false,true,false,false,false,false,false,false,false,false,false,false,false,false,false,false,false],"id":3,"left_children":[1,3,5,7,9,11,-1,13,15,17,19,21,23,25,27,-1,-1,29,-1,31,33,35,-1,37,-1,-1,-1,-1,-1,-1,-1,-1,-1,-1,-1,-1,-1,-1,-1],"loss_changes":[6.264127E0,7.634392E0,3.798741E0,4.267445E0,5.1745768E0,2.384706E0,0E0,3.3797207E0,3.680789E0,1.5417213E0,5.6034317E0,5.6806197E0,2.1178107E0,2.8779457E0,1.7535987E0,0E0,0E0,1.5662975E0,0E0,2.6839643E0,3.4719324E0,2.7258098E0,0E0,4.5436382E-1,0E0,0E0,0E0,0E0,0E0,0E0,0E0,0E0,0E0,0E0,0E0,0E0,0E0,0E0,0E0],"parents":[2147483647,0,0,1,1,2,2,3,3,4,4,5,5,7,7,8,8,9,9,10,10,11,11,12,12,13,13,14,14,17,17,19,19,20,20,21,21,23,23],"right_children":[2,4,6,8,10,12,-1,14,16,18,20,22,24,26,28,-1,-1,30,-1,32,34,36,-1,38,-1,-1,-1,-1,-1,-1,-1,-1,-1,-1,-1,-1,-1,-1,-1],"split_conditions":[-5.3425692E-2,-2.4942939E-1,2.0628664E0,-8.344462E-2,-1.5492299E-1,1.0743053E-1,9.9608734E-2,-2.4707058E-1,-2.4925515E-1,8.748262E-3,-2.8648883E-1,1.3973245E-1,1.2374177E0,-1.6960126E-1,-2.1981083E-1,-3.231008E-2,1.1764524E-1,-4.167071E-1,1.34828305E-2,-1.1156407E-1,-9.2562005E-2,3.0387353E-2,1.03294246E-1,-8.563016E-3,2.0247113E-2,-5.1950492E-2,1.0502031E-1,-4.736005E-2,3.177994E-2,3.3401188E-2,1.4066271E-1,-7.861056E-2,5.668168E-2,1.072387E-1,1.8075736E-2,-5.9927203E-2,6.373691E-2,-2.4229674E-2,-1.17016315E-1],"split_indices":[0,4,8,0,2,7,0,6,9,9,9,0,9,2,5,0,0,9,0,2,9,4,0,8,0,0,0,0,0,0,0,0,0,0,0,0,0,0,0],"split_type":[0,0,0,0,0,0,0,0,0,0,0,0,0,0,0,0,0,0,0,0,0,0,0,0,0,0,0,0,0,0,0,0,0,0,0,0,0,0,0],"sum_hessian":[9.385526E1,6.987206E1,2.39832E1,3.3316643E1,3.6555424E1,2.288895E1,1.0942485E0,2.7869925E1,5.4467187E0,1.2418464E1,2.413696E1,1.5054998E1,7.8339524E0,3.453402E0,2.4416523E1,2.0449386E0,3.4017801E0,1.0587336E1,1.8311278E0,6.176056E0,1.7960903E1,1.2816394E1,2.2386045E0,6.5382547E0,1.2956972E0,1.0339495E0,2.4194524E0,2.1930456E1,2.4860659E0,2.4912548E0,8.096081E0,5.031431E0,1.144625E0,6.712509E0,1.1248394E1,1.1576026E1,1.2403678E0,1.2471988E0,5.291056E0],"tree_param":{"num_deleted":"0","num_feature":"10","num_nodes":"39","size_leaf_vector":"0"}},{"base_weights":[5.171251E-2,-3.507688E-1,2.8159058E-1,1.7761233E-1,-4.534603E-1,9.961615E-1,2.1237482E-1,-2.9495916E-1,1.168449E0,-2.6000512E-1,-8.011569E-1,4.2558324E-1,1.1861949E0,3.771009E-1,-1.2663679E-1,-7.9775816E-1,4.6804446E-1,-5.7315767E-1,4.8378634E-1,-1.1176435E0,7.6090775E-2,-1.0338562E-1,7.266272E-1,-3.2236373E-1,9.9621207E-1,-1.0581499E0,-1.8303093E-1,1.2523796E-1,-7.708373E-1,-1.9846402E-1,1.3384575E0,-2.7053234E-1,-1.2267122E0,6.8074894E-1,-5.7299006E-1,-5.103144E-1,7.878893E-1,2.0097075E-2,8.75296E-1,4.149332E-1,-5.9338874E-1],"categories":[],"categories_nodes":[],"categories_segments":[],"categories_sizes":[],"default_left":[true,true,true,true,true,true,true,true,false,true,true,false,false,true,true,true,false,true,true,true,true,true,true,true,false,false,false,false,false,false,false,false,false,false,false,false,false,false,false,false,false],"id":4,"left_children":[1,3,5,7,9,11,13,15,-1,17,19,-1,-1,21,23,25,-1,27,29,31,33,35,37,39,-1,-1,-1,-1,-1,-1,-1,-1,-1,-1,-1,-1,-1,-1,-1,-1,-1],"loss_changes":[8.964934E0,1.9949021E0,2.8325214E0,3.3693354E0,1.797595E0,5.5125237E-2,3.2522352E0,2.3576102E0,0E0,5.085014E0,2.91148E0,0E0,0E0,6.602968E0,4.6095886E0,3.6455894E-1,0E0,2.1651044E0,4.1478233E0,3.6524582E-1,1.8168157E0,6.6561284E0,2.3589935E0,3.7176313E0,0E0,0E0,0E0,0E0,0E0,0E0,0E0,0E0,0E0,0E0,0E0,0E0,0E0,0E0,0E0,0E0,0E0],"parents":[2147483647,0,0,1,1,2,2,3,3,4,4,5,5,6,6,7,7,9,9,10,10,13,13,14,14,15,15,17,17,18,18,19,19,20,20,21,21,22,22,23,23],"right_children":[2,4,6,8,10,12,14,16,-1,18,20,-1,-1,22,24,26,-1,28,30,32,34,36,38,40,-1,-1,-1,-1,-1,-1,-1,-1,-1,-1,-1,-1,-1,-1,-1,-1,-1],"split_conditions":[-1.9897038E-1,-8.55533E-2,-3.960206E-1,-8.606063E-2,-2.0530334E-1,-9.764637E-1,-8.105401E-2,-2.3913506E-1,1.1684491E-1,-2.2073355E-1,-6.3485075E-3,4.2558324E-2,1.18619494E-1,-2.524237E-1,1.2616489E0,-1.6767648E-1,4.6804447E-2,-2.3924264E-1,-8.344462E-2,-1.2068067E0,1.601233E-2,-8.503275E-2,-1.7881289E-1,2.4639588E-2,9.962121E-2,-1.0581499E-1,-1.8303094E-2,1.25237955E-2,-7.708373E-2,-1.9846402E-2,1.3384575E-1,-2.7053235E-2,-1.22671224E-1,6.80749E-2,-5.7299007E-2,-5.103144E-2,7.878893E-2,2.0097075E-3,8.75296E-2,4.1493323E-2,-5.9338875E-2],"split_indices":[9,0,6,0,4,6,2,3,0,5,5,0,0,4,4,2,0,6,0,9,0,0,7,9,0,0,0,0,0,0,0,0,0,0,0,0,0,0,0,0,0],"split_type":[0,0,0,0,0,0,0,0,0,0,0,0,0,0,0,0,0,0,0,0,0,0,0,0,0,0,0,0,0,0,0,0,0,0,0,0,0,0,0,0,0],"sum_hessian":[9.482799E1,3.4281113E1,6.054687E1,5.459685E0,2.8821428E1,4.164209E0,5.6382664E1,4.172133E0,1.2875518E0,1.9641096E1,9.180332E0,1.8497683E0,2.3144405E0,3.7869488E1,1.8513176E1,2.4874322E0,1.684701E0,1.3983251E1,5.6578455E0,6.545032E0,2.6353E0,1.6243752E1,2.1625736E1,1.6372198E1,2.1409788E0,1.2405965E0,1.2468356E0,3.1656327E0,1.0817617E1,3.5732498E0,2.0845957E0,1.1435713E0,5.4014606E0,1.3390781E0,1.2962217E0,1.1445515E1,4.7982373E0,3.9567847E0,1.7668951E1,4.2579317E0,1.2114265E1],"tree_param":{"num_deleted":"0","num_feature":"10","num_nodes":"41","size_leaf_vector":"0"}},{"base_weights":[1.06077634E-1,2.5864112E-1,-3.1962547E-1,-1.6804555E-2,5.5036896E-1,9.25447E-1,-4.207275E-1,-1.365235E-1,6.984496E-1,-7.560959E-2,7.951101E-1,-1.0392787E0,-1.4796498E-1,5.8261615E-1,-2.3628293E-1,-3.8111353E-1,1.0678054E0,2.687527E-1,-9.704332E-1,1.0832521E0,3.1724644E-1,-4.3853855E-1,-1.1753426E0,5.536741E-1,-3.6047816E-1,-3.1472903E-1,1.2404854E0,3.9853978E-1,-3.3183435E-1,-2.2868602E-2,8.901854E-1,1.4553791E0,5.705197E-1,-1.9485189E-1,1.1032385E0,8.9396226E-1,-1.09155424E-1,-6.274969E-1,3.4490082E-1],"categories":[],"categories_nodes":[],"categories_segments":[],"categories_sizes":[],"default_left":[true,true,true,true,true,false,true,true,true,true,true,true,true,true,true,false,false,true,false,true,true,false,false,true,true,false,false,false,false,false,false,false,false,false,false,false,false,false,false],"id":5,"left_children":[1,3,5,7,9,-1,11,13,15,17,19,21,23,25,27,-1,-1,29,-1,31,33,-1,-1,35,37,-1,-1,-1,-1,-1,-1,-1,-1,-1,-1,-1,-1,-1,-1],"loss_changes":[5.7520103E0,5.2174444E0,3.3446898E0,3.0331354E0,4.887019E0,0E0,3.6257842E0,2.3060641E0,2.4336126E0,3.2710676E0,2.7871418E0,3.1354427E-2,2.6915135E0,2.7344291E0,1.785476E0,0E0,0E0,1.440673E0,0E0,1.7971001E0,4.226809E0,0E0,0E0,1.0628208E0,2.746491E0,0E0,0E0,0E0,0E0,0E0,0E0,0E0,0E0,0E0,0E0,0E0,0E0,0E0,0E0],"parents":[2147483647,0,0,1,1,2,2,3,3,4,4,6,6,7,7,8,8,9,9,10,10,11,11,12,12,13,13,14,14,17,17,19,19,20,20,23,23,24,24],"right_children":[2,4,6,8,10,-1,12,14,16,18,20,22,24,26,28,-1,-1,30,-1,32,34,-1,-1,36,38,-1,-1,-1,-1,-1,-1,-1,-1,-1,-1,-1,-1,-1,-1],"split_conditions":[-3.349287E-2,-2.390374E-1,-2.8937346E-1,-8.235718E-2,-2.8648883E-1,9.25447E-2,-1.1875284E-1,-4.446421E-1,-4.4514066E-1,-1.21759385E-1,-9.828888E-2,-8.2793936E-2,-2.8399603E-2,-2.3346163E-1,-2.4611798E-1,-3.8111355E-2,1.06780544E-1,-1.9400509E-1,-9.704332E-2,-1.8186694E-1,-1.1530319E-1,-4.3853857E-2,-1.1753426E-1,-8.416314E-2,1.043164E0,-3.1472903E-2,1.24048546E-1,3.985398E-2,-3.3183437E-2,-2.2868603E-3,8.9018546E-2,1.4553791E-1,5.7051968E-2,-1.9485189E-2,1.1032385E-1,8.939623E-2,-1.0915543E-2,-6.274969E-2,3.4490082E-2],"split_indices":[1,3,5,0,9,0,7,9,9,3,1,2,7,5,6,0,0,3,0,3,7,0,0,9,9,0,0,0,0,0,0,0,0,0,0,0,0,0,0],"split_type":[0,0,0,0,0,0,0,0,0,0,0,0,0,0,0,0,0,0,0,0,0,0,0,0,0,0,0,0,0,0,0,0,0,0,0,0,0,0,0],"sum_hessian":[8.629216E1,6.381469E1,2.2477472E1,3.3308052E1,3.0506638E1,1.0757692E0,2.1401703E1,2.9225437E1,4.082616E0,8.769023E0,2.1737616E1,5.689429E0,1.5712274E1,2.9706423E0,2.6254795E1,1.0326185E0,3.0499976E0,6.837392E0,1.931631E0,1.2770438E1,8.967177E0,1.830511E0,3.8589177E0,3.2794363E0,1.24328375E1,1.4772462E0,1.4933962E0,3.019951E0,2.3234844E1,5.3091526E0,1.5282393E0,6.334532E0,6.435906E0,5.8850064E0,3.082171E0,1.9365369E0,1.3428994E0,9.098894E0,3.3339431E0],"tree_param":{"num_deleted":"0","num_feature":"10","num_nodes":"39","size_leaf_vector":"0"}},{"base_weights":[1.13190934E-1,9.348049E-1,4.24056E-2,-2.4371859E-2,1.105034E0,-6.4655983E-1,9.4251715E-2,6.847777E-2,1.3156888E0,-1.5429029E-1,-8.732636E-1,2.2293349E-1,-1.3778354E-1,1.5481675E-1,-3.942404E-1,-2.5348747E-1,-1.03377E0,-1.478549E-2,7.458279E-1,-2.969456E-1,5.6242996E-1,-2.3847364E-1,5.162481E-1,1.0790098E-1,1.0948738E0,-4.480388E-2,-9.347931E-1,1.2552321E0,-9.983643E-2],"categories":[],"categories_nodes":[],"categories_segments":[],"categories_sizes":[],"default_left":[true,true,true,false,true,true,true,false,false,true,true,true,true,false,false,false,false,true,true,true,true,false,false,false,false,false,false,false,false],"id":6,"left_children":[1,3,5,-1,7,9,11,-1,-1,13,15,17,19,-1,-1,-1,-1,21,23,25,27,-1,-1,-1,-1,-1,-1,-1,-1],"loss_changes":[5.268908E0,1.2013459E0,3.1001935E0,0E0,1.2484517E0,5.440061E-1,2.4195056E0,0E0,0E0,2.933612E-1,1.3085246E-1,6.4554443E0,3.4166222E0,0E0,0E0,0E0,0E0,4.473295E0,3.4941282E0,3.8843155E0,2.7616205E0,0E0,0E0,0E0,0E0,0E0,0E0,0E0,0E0],"parents":[2147483647,0,0,1,1,2,2,4,4,5,5,6,6,9,9,10,10,11,11,12,12,17,17,18,18,19,19,20,20],"right_children":[2,4,6,-1,8,10,12,-1,-1,14,16,18,20,-1,-1,-1,-1,22,24,26,28,-1,-1,-1,-1,-1,-1,-1,-1],"split_conditions":[-2.7045864E-1,-1.7030746E-1,-7.9608226E-1,-2.437186E-3,-3.78509E-1,-1.1582896E0,-5.3860225E-2,6.8477774E-3,1.315689E-1,-1.5652332E-1,-2.0412593E-1,-2.316216E-1,6.9962525E-1,1.5481675E-2,-3.9424043E-2,-2.5348747E-2,-1.03377E-1,-8.4873945E-2,-1.9687483E-1,3.3379063E-2,1.747056E0,-2.3847364E-2,5.1624812E-2,1.07900975E-2,1.0948738E-1,-4.480388E-3,-9.347931E-2,1.2552321E-1,-9.983643E-3],"split_indices":[5,2,9,0,9,9,8,0,0,7,3,4,5,0,0,0,0,0,9,2,7,0,0,0,0,0,0,0,0],"split_type":[0,0,0,0,0,0,0,0,0,0,0,0,0,0,0,0,0,0,0,0,0,0,0,0,0,0,0,0,0],"sum_hessian":[9.027772E1,6.192652E0,8.408506E1,1.0625291E0,5.130123E0,5.081954E0,7.900311E1,1.0902871E0,4.039836E0,2.1323352E0,2.9496188E0,5.0844868E1,2.8158243E1,1.0869315E0,1.0454038E0,1.1373141E0,1.8123047E0,3.5622047E1,1.5222818E1,2.3412407E1,4.7458367E0,2.5451849E1,1.0170198E1,5.846573E0,9.3762455E0,1.7546501E1,5.865906E0,1.8818549E0,2.8639817E0],"tree_param":{"num_deleted":"0","num_feature":"10","num_nodes":"29","size_leaf_vector":"0"}},{"base_weights":[1.4171001E-1,6.677014E-2,6.6006494E-1,7.051982E-1,1.6619323E-2,1.2386405E0,1.3242576E-1,1.0799023E0,-4.70683E-1,-4.570045E-1,1.4219703E-1,-6.294138E-1,7.7121764E-1,-8.531053E-1,1.5214529E-2,2.892289E-1,-1.6739745E-1,-1.6035883E-1,-8.199572E-1,1.1417853E0,1.3882335E-1,-1.3428986E-1,-9.5275176E-1,1.2445817E0,-5.54012E-1,-1.00360975E-1,6.206662E-1,-4.0023217E-1,2.7853736E-1],"categories":[],"categories_nodes":[],"categories_segments":[],"categories_sizes":[],"default_left":[true,true,true,true,true,false,true,false,false,true,true,true,true,true,true,true,true,false,false,false,false,false,false,false,false,false,false,false,false],"id":7,"left_children":[1,3,5,7,9,-1,11,-1,-1,13,15,17,19,21,23,25,27,-1,-1,-1,-1,-1,-1,-1,-1,-1,-1,-1,-1],"loss_changes":[3.477199E0,2.5596488E0,3.2970328E0,3.0748718E0,4.5546217E0,0E0,3.9160588E0,0E0,0E0,3.0164297E0,2.7991385E0,2.0507121E-1,8.453646E-1,4.9879122E-1,6.5028663E0,5.3999653E0,2.1975257E0,0E0,0E0,0E0,0E0,0E0,0E0,0E0,0E0,0E0,0E0,0E0,0E0],"parents":[2147483647,0,0,1,1,2,2,3,3,4,4,6,6,9,9,10,10,11,11,12,12,13,13,14,14,15,15,16,16],"right_children":[2,4,6,8,10,-1,12,-1,-1,14,16,18,20,22,24,26,28,-1,-1,-1,-1,-1,-1,-1,-1,-1,-1,-1,-1],"split_conditions":[1.4429668E-1,-2.715752E-1,2.2650456E-1,1.4646993E-2,-2.3745398E-1,1.23864055E-1,4.9591237E-1,1.0799023E-1,-4.70683E-2,-1.21230915E-1,-9.421606E-2,3.4608692E-1,1.3137486E0,-2.6107788E-1,-1.140657E-1,-2.4208178E-1,-4.9044237E-2,-1.6035883E-2,-8.199572E-2,1.1417853E-1,1.3882334E-2,-1.3428986E-2,-9.527518E-2,1.2445817E-1,-5.5401202E-2,-1.0036098E-2,6.2066622E-2,-4.002322E-2,2.7853737E-2],"split_indices":[4,5,2,3,6,0,2,0,0,8,9,2,2,4,8,3,7,0,0,0,0,0,0,0,0,0,0,0,0],"split_type":[0,0,0,0,0,0,0,0,0,0,0,0,0,0,0,0,0,0,0,0,0,0,0,0,0,0,0,0,0],"sum_hessian":[8.964824E1,7.9310875E1,1.0337361E1,4.8250937E0,7.448579E1,4.287951E0,6.04941E0,3.7209926E0,1.1041013E0,1.5057251E1,5.9428535E1,2.7656755E0,3.2837346E0,7.749948E0,7.3073025E0,4.0337383E1,1.9091152E1,1.3309364E0,1.4347391E0,1.5625957E0,1.7211388E0,1.2293686E0,6.5205793E0,1.9371552E0,5.370147E0,1.886252E1,2.1474863E1,1.2609747E1,6.4814043E0],"tree_param":{"num_deleted":"0","num_feature":"10","num_nodes":"29","size_leaf_vector":"0"}},{"base_weights":[4.7813438E-2,8.450179E-1,-8.538592E-3,1.0263864E0,3.9920997E-2,1.2475895E-1,-3.1208476E-1,-1.7465733E-1,7.0639443E-1,4.9752137E-1,-4.7681174E-1,3.3175248E-1,-3.8536498E-1,1.1920129E0,4.170258E-1,-1.668063E-1,9.19797E-1,-1.0978193E0,-1.7931524E-1,4.0130552E-2,1.2289898E0,2.092908E-1,-5.28285E-1,1.4032837E0,2.445265E-1,-2.9271325E-2,7.8528744E-1,3.3418903E-1,-5.2561146E-1],"categories":[],"categories_nodes":[],"categories_segments":[],"categories_sizes":[],"default_left":[true,true,true,false,false,true,true,true,true,true,true,true,true,true,true,false,false,false,true,false,false,false,false,false,false,false,false,false,false],"id":8,"left_children":[1,3,5,-1,-1,7,9,11,13,15,17,19,21,23,25,-1,-1,-1,27,-1,-1,-1,-1,-1,-1,-1,-1,-1,-1],"loss_changes":[4.0855484E0,8.356528E-1,3.5097325E0,0E0,0E0,1.0628029E1,3.7660465E0,4.462403E0,2.4113111E0,1.5456626E0,3.9594488E0,3.2143445E0,2.5878782E0,1.0961018E0,2.407305E0,0E0,0E0,0E0,3.0930004E0,0E0,0E0,0E0,0E0,0E0,0E0,0E0,0E0,0E0,0E0],"parents":[2147483647,0,0,1,1,2,2,5,5,6,6,7,7,8,8,9,9,10,10,11,11,12,12,13,13,14,14,18,18],"right_children":[2,4,6,-1,-1,8,10,12,14,16,18,20,22,24,26,-1,-1,-1,28,-1,-1,-1,-1,-1,-1,-1,-1,-1,-1],"split_conditions":[-2.715752E-1,3.0613015E-4,-6.314607E-2,1.0263864E-1,3.9921E-3,-8.489807E-2,-8.0638915E-2,-8.581358E-2,-1.6029395E-1,-1.4099097E-1,-1.4858973E-1,-1.1615111E-1,-2.418542E-1,-1.0786585E-1,-7.694059E-2,-1.668063E-2,9.1979705E-2,-1.09781936E-1,8.677534E-2,4.0130555E-3,1.2289899E-1,2.0929081E-2,-5.2828502E-2,1.4032838E-1,2.445265E-2,-2.9271326E-3,7.852875E-2,3.3418905E-2,-5.2561145E-2],"split_indices":[5,1,1,0,0,0,0,0,2,7,6,1,6,1,0,0,0,0,5,0,0,0,0,0,0,0,0,0,0],"split_type":[0,0,0,0,0,0,0,0,0,0,0,0,0,0,0,0,0,0,0,0,0,0,0,0,0,0,0,0,0],"sum_hessian":[8.978277E1,5.003506E0,8.477927E1,3.8592515E0,1.1442548E0,5.9319176E1,2.546009E1,3.9622093E1,1.969708E1,3.9628842E0,2.1497206E1,1.1473202E1,2.8148891E1,6.189875E0,1.3507206E1,1.7751637E0,2.1877205E0,6.0914493E0,1.5405756E1,9.447335E0,2.025866E0,5.364425E0,2.2784466E1,4.667954E0,1.5219215E0,6.5227656E0,6.9844403E0,6.218957E0,9.186799E0],"tree_param":{"num_deleted":"0","num_feature":"10","num_nodes":"29","size_leaf_vector":"0"}},{"base_weights":[7.338638E-2,2.0503196E-1,-2.0165002E-1,-1.0230855E-1,6.0343015E-1,-2.9724523E-1,1.027885E0,-2.1829031E-1,8.1821656E-1,9.0512675E-1,2.4489515E-1,-6.906005E-1,-2.6052307E-2,-4.8187837E-2,-7.306938E-1,1.0861864E0,1.5597143E-2,2.5646082E-1,1.2728847E0,-6.795998E-1,7.161813E-1,4.7879574E-1,-8.6139244E-1,5.233828E-1,-4.6834418E-1,-2.5493115E-1,5.247015E-1,-1.0315905E0,3.574406E-1,-2.5985745E-1,1.0301496E0,5.9298277E-1,1.4195709E0,3.516713E-2,-1.0672017E0,1.0709556E0,-1.6814406E-1,-1.0551411E0,1.4125381E-1,-2.079967E-1,7.39384E-1,5.260674E-1,-6.586456E-1],"categories":[],"categories_nodes":[],"categories_segments":[],"categories_sizes":[],"default_left":[true,true,true,true,true,true,false,true,true,true,true,true,true,true,true,false,false,true,true,true,true,false,true,true,true,false,false,false,false,false,false,false,false,false,false,false,false,false,false,false,false,false,false],"id":9,"left_children":[1,3,5,7,9,11,-1,13,15,17,19,21,23,25,27,-1,-1,29,31,33,35,-1,37,39,41,-1,-1,-1,-1,-1,-1,-1,-1,-1,-1,-1,-1,-1,-1,-1,-1,-1,-1],"loss_changes":[3.2956796E0,7.565281E0,3.7845404E0,3.9633102E0,2.6807556E0,2.9944596E0,0E0,2.777647E0,8.814926E-1,3.0610428E0,6.426243E0,2.706242E0,4.5596657E0,3.130242E0,2.9790893E0,0E0,0E0,2.8203716E0,3.686428E-2,1.4548893E0,3.1656199E0,0E0,2.1651974E0,1.4793029E0,2.307771E0,0E0,0E0,0E0,0E0,0E0,0E0,0E0,0E0,0E0,0E0,0E0,0E0,0E0,0E0,0E0,0E0,0E0,0E0],"parents":[2147483647,0,0,1,1,2,2,3,3,4,4,5,5,7,7,8,8,9,9,10,10,11,11,12,12,13,13,14,14,17,17,18,18,19,19,20,20,22,22,23,23,24,24],"right_children":[2,4,6,8,10,12,-1,14,16,18,20,22,24,26,28,-1,-1,30,32,34,36,-1,38,40,42,-1,-1,-1,-1,-1,-1,-1,-1,-1,-1,-1,-1,-1,-1,-1,-1,-1,-1],"split_conditions":[-6.753565E-2,-2.3826635E-1,2.0628664E0,-8.10183E-2,-1.3782966E-1,-1.4268652E-1,1.027885E-1,-2.4421042E-1,-7.26453E-2,-2.3147985E-1,-1.10028096E-1,-1.3028346E-1,7.293971E-2,-2.483204E-1,-1.1170538E-1,1.0861864E-1,1.5597143E-3,-5.3122837E-2,-2.3127958E-1,-2.1041048E-1,5.568481E-1,4.7879573E-2,2.2803294E-4,-1.3229902E-1,-6.842351E-2,-2.5493115E-2,5.2470148E-2,-1.0315905E-1,3.574406E-2,-2.5985746E-2,1.0301496E-1,5.9298277E-2,1.4195709E-1,3.5167132E-3,-1.0672017E-1,1.0709556E-1,-1.6814407E-2,-1.0551411E-1,1.4125382E-2,-2.079967E-2,7.39384E-2,5.260674E-2,-6.5864556E-2],"split_indices":[1,3,8,0,7,6,0,3,0,7,7,2,6,3,1,0,0,4,3,4,7,0,0,8,0,0,0,0,0,0,0,0,0,0,0,0,0,0,0,0,0,0,0],"split_type":[0,0,0,0,0,0,0,0,0,0,0,0,0,0,0,0,0,0,0,0,0,0,0,0,0,0,0,0,0,0,0,0,0,0,0,0,0,0,0,0,0,0,0],"sum_hessian":[8.888056E1,6.0281487E1,2.8599075E1,3.444919E1,2.5832298E1,2.7239477E1,1.3595986E0,3.1271936E1,3.1772509E0,1.3200205E1,1.2632093E1,1.0484937E1,1.675454E1,2.4299335E1,6.972602E0,2.117111E0,1.0601399E0,5.3901715E0,7.8100333E0,4.115987E0,8.516107E0,1.1063658E0,9.3785715E0,7.3904476E0,9.364093E0,1.8263458E1,6.035877E0,5.5028806E0,1.4697212E0,3.6311014E0,1.75907E0,2.280814E0,5.529219E0,1.7669214E0,2.3490655E0,5.9271894E0,2.5889175E0,7.815893E0,1.5626781E0,1.6934589E0,5.6969886E0,1.2207459E0,8.143347E0],"tree_param":{"num_deleted":"0","num_feature":"10","num_nodes":"43","size_leaf_vector":"0"}},{"base_weights":[3.6096092E-2,4.6353465E-1,-4.9878854E-2,-6.720818E-1,6.740133E-1,1.0832962E0,-1.0314916E-1,-6.9317326E-2,1.059988E0,-6.759429E-1,-4.999711E-2,-5.741312E-1,4.8642564E-1,1.1959912E0,4.376993E-2,-8.6212546E-1,1.1535795E-1,8.5663065E-2,-2.7841747E-1,1.109483E-1,-9.577701E-1,1.7649904E-1,1.3730896E0,-9.891784E-1,-2.799183E-1,-9.625692E-2,4.9656725E-1,-3.8400754E-1,4.9221006E-1],"categories":[],"categories_nodes":[],"categories_segments":[],"categories_sizes":[],"default_left":[true,true,true,false,true,false,true,true,true,true,true,true,false,true,false,true,false,true,true,false,false,false,false,false,false,false,false,false,false],"id":10,"left_children":[1,3,5,-1,7,-1,9,11,13,15,17,19,-1,21,-1,23,-1,25,27,-1,-1,-1,-1,-1,-1,-1,-1,-1,-1],"loss_changes":[3.2787573E0,4.022182E0,4.618486E0,0E0,3.8310432E0,0E0,2.1649454E0,1.7983934E0,1.1475754E0,9.911678E-1,2.1051924E0,9.72553E-1,0E0,1.1332998E0,0E0,9.428358E-2,0E0,3.2549913E0,2.2446313E0,0E0,0E0,0E0,0E0,0E0,0E0,0E0,0E0,0E0,0E0],"parents":[2147483647,0,0,1,1,2,2,4,4,6,6,7,7,8,8,9,9,10,10,11,11,13,13,15,15,17,17,18,18],"right_children":[2,4,6,-1,8,-1,10,12,14,16,18,20,-1,22,-1,24,-1,26,28,-1,-1,-1,-1,-1,-1,-1,-1,-1,-1],"split_conditions":[-8.58224E-2,-7.2307485E-1,-2.8937346E-1,-6.7208186E-2,-1.6791442E-1,1.0832962E-1,-2.6332012E-1,-2.5400436E-1,2.1661151E-2,-8.397728E-2,-7.074277E-2,-1.0523066E-1,4.8642565E-2,-3.1337625E-1,4.376993E-3,-1.7937315E-1,1.1535795E-2,-2.2935449E-1,1.19667E0,1.109483E-2,-9.577701E-2,1.7649904E-2,1.3730896E-1,-9.891784E-2,-2.7991831E-2,-9.625692E-3,4.9656726E-2,-3.8400754E-2,4.9221005E-2],"split_indices":[0,8,5,0,2,0,6,4,1,4,8,8,0,9,0,8,0,4,8,0,0,0,0,0,0,0,0,0,0],"split_type":[0,0,0,0,0,0,0,0,0,0,0,0,0,0,0,0,0,0,0,0,0,0,0,0,0,0,0,0,0],"sum_hessian":[8.7591156E1,1.3932405E1,7.365875E1,1.8355845E0,1.2096821E1,2.439049E0,7.12197E1,4.4148593E0,7.6819615E0,5.0526457E0,6.616705E1,2.2960944E0,2.1187649E0,6.6191936E0,1.0627681E0,4.0178056E0,1.0348401E0,4.190463E1,2.4262426E1,1.0793879E0,1.2167065E0,1.2751614E0,5.3440323E0,2.724281E0,1.2935245E0,2.9576113E1,1.2328517E1,2.1779879E1,2.4825463E0],"tree_param":{"num_deleted":"0","num_feature":"10","num_nodes":"29","size_leaf_vector":"0"}},{"base_weights":[6.1144553E-2,4.0071297E-1,-1.0729355E-2,-5.0448533E-2,1.0542659E0,9.949765E-1,-5.4628167E-2,-7.3990315E-1,4.2794517E-1,2.3963681E-1,1.2798651E0,-1.2888688E-1,2.6072544E-1,9.157037E-2,-1.077018E0,6.290891E-1,-1.372522E-1,4.3831366E-1,-1.9958854E-1,7.56906E-1,-2.3375504E-1,9.701625E-1,1.0046425E-1,-2.2481914E-1,1.0100623E0,-9.3990433E-1,-1.360548E-1,1.1228242E0,1.6222285E-1,-4.723401E-1,6.116321E-1],"categories":[],"categories_nodes":[],"categories_segments":[],"categories_sizes":[],"default_left":[true,true,true,true,true,false,true,true,true,false,false,true,true,false,false,true,false,true,true,true,true,false,false,false,false,false,false,false,false,false,false],"id":11,"left_children":[1,3,5,7,9,-1,11,13,15,-1,-1,17,19,-1,-1,21,-1,23,25,27,29,-1,-1,-1,-1,-1,-1,-1,-1,-1,-1],"loss_changes":[2.1150265E0,4.515474E0,3.2485487E0,3.584428E0,8.375492E-1,0E0,1.6792126E0,1.3389337E0,8.233216E-1,0E0,0E0,2.3952525E0,3.5442264E0,0E0,0E0,7.9685163E-1,0E0,2.7639947E0,2.311186E0,1.3598843E0,1.8294587E0,0E0,0E0,0E0,0E0,0E0,0E0,0E0,0E0,0E0,0E0],"parents":[2147483647,0,0,1,1,2,2,3,3,4,4,6,6,7,7,8,8,11,11,12,12,15,15,17,17,18,18,19,19,20,20],"right_children":[2,4,6,8,10,-1,12,14,16,-1,-1,18,20,-1,-1,22,-1,24,26,28,30,-1,-1,-1,-1,-1,-1,-1,-1,-1,-1],"split_conditions":[-8.553566E-2,-9.033713E-2,-2.8937346E-1,-2.3854312E-1,-2.5649697E-1,9.949765E-2,-2.2740934E-2,-2.6603824E-1,6.814646E-1,2.396368E-2,1.2798652E-1,-2.610548E-1,1.771952E-1,9.157037E-3,-1.077018E-1,-1.3826832E-1,-1.372522E-2,-2.3956136E-1,-3.1490242E-1,8.4853575E-2,1.8530018E0,9.701625E-2,1.0046425E-2,-2.2481915E-2,1.0100623E-1,-9.399044E-2,-1.360548E-2,1.1228242E-1,1.6222285E-2,-4.723401E-2,6.1163213E-2],"split_indices":[0,0,5,4,4,0,5,4,4,0,0,4,2,0,0,1,0,5,6,7,1,0,0,0,0,0,0,0,0,0,0],"split_type":[0,0,0,0,0,0,0,0,0,0,0,0,0,0,0,0,0,0,0,0,0,0,0,0,0,0,0,0,0,0,0],"sum_hessian":[8.548355E1,1.4133689E1,7.134986E1,8.907476E0,5.226212E0,2.078017E0,6.927184E1,3.4249065E0,5.48257E0,1.5806776E0,3.6455345E0,5.6547474E1,1.272437E1,1.1981393E0,2.2267673E0,3.9601705E0,1.5223994E0,5.691136E0,5.0856335E1,6.086367E0,6.638003E0,1.8994025E0,2.0607681E0,2.915931E0,2.775205E0,2.929308E0,4.792703E1,3.218108E0,2.8682592E0,5.521109E0,1.1168934E0],"tree_param":{"num_deleted":"0","num_feature":"10","num_nodes":"31","size_leaf_vector":"0"}},{"base_weights":[1.267772E-1,7.067575E-2,1.2586596E0,1.7453867E-1,-1.8921912E-1,8.9155E-2,6.551981E-1,5.584742E-2,-5.7289815E-1,-3.676479E-2,3.7778527E-1,9.266103E-1,-8.09721E-2,-7.3212284E-1,5.100921E-1,1.9004442E-1,-7.1915334E-1,1.03595614E-1,-7.7826464E-1,7.8421617E-1,-3.0761901E-2,1.4390048E-1,1.2362756E0,-5.359472E-1,4.1403064E-1,4.1508126E-1,-1.0495319E0,-5.034842E-1,8.342364E-1,-2.6669207E-3,-9.076155E-1],"categories":[],"categories_nodes":[],"categories_segments":[],"categories_sizes":[],"default_left":[true,true,false,true,true,true,true,true,true,true,true,true,true,true,true,false,true,false,false,false,false,false,false,false,false,false,false,false,false,false,false],"id":12,"left_children":[1,3,-1,5,7,9,11,13,15,17,19,21,23,25,27,-1,29,-1,-1,-1,-1,-1,-1,-1,-1,-1,-1,-1,-1,-1,-1],"loss_changes":[5.218027E0,2.2110462E0,0E0,2.3288612E0,2.2433379E0,1.8511631E0,1.796725E0,5.8364377E0,1.1694429E0,3.8386548E0,2.5885203E0,1.367526E0,9.517622E-1,2.6174464E0,3.7944748E0,0E0,1.0745416E0,0E0,0E0,0E0,0E0,0E0,0E0,0E0,0E0,0E0,0E0,0E0,0E0,0E0,0E0],"parents":[2147483647,0,0,1,1,3,3,4,4,5,5,6,6,7,7,8,8,9,9,10,10,11,11,12,12,13,13,14,14,16,16],"right_children":[2,4,-1,6,8,10,12,14,16,18,20,22,24,26,28,-1,30,-1,-1,-1,-1,-1,-1,-1,-1,-1,-1,-1,-1,-1,-1],"split_conditions":[1.1534221E0,-6.658885E-2,1.2586597E-1,-1.310044E-1,1.1680682E-1,-1.6165961E-1,3.5902885E-1,-1.09183304E-1,-6.340247E-2,-1.8513465E-1,-2.1027535E-1,-2.930323E-1,5.318957E-1,-1.3963103E-1,-1.0191334E0,1.9004442E-2,-2.38158E-2,1.0359562E-2,-7.782646E-2,7.8421615E-2,-3.0761901E-3,1.4390049E-2,1.2362756E-1,-5.359472E-2,4.1403066E-2,4.1508127E-2,-1.0495319E-1,-5.034842E-2,8.342364E-2,-2.6669208E-4,-9.076155E-2],"split_indices":[8,1,0,2,8,9,8,2,2,9,6,7,8,2,8,0,7,0,0,0,0,0,0,0,0,0,0,0,0,0,0],"split_type":[0,0,0,0,0,0,0,0,0,0,0,0,0,0,0,0,0,0,0,0,0,0,0,0,0,0,0,0,0,0,0],"sum_hessian":[8.257424E1,7.968702E1,2.8872244E0,5.7168823E1,2.2518198E1,4.9551968E1,7.6168566E0,1.4262672E1,8.255526E0,3.5108093E1,1.4443872E1,5.376099E0,2.2407572E0,4.9917808E0,9.270891E0,1.2798364E0,6.9756894E0,3.0243511E1,4.8645825E0,6.779733E0,7.6641393E0,1.9392216E0,3.4368777E0,1.1244857E0,1.1162715E0,1.0151244E0,3.9766564E0,2.1123745E0,7.158517E0,1.6639426E0,5.3117466E0],"tree_param":{"num_deleted":"0","num_feature":"10","num_nodes":"31","size_leaf_vector":"0"}},{"base_weights":[7.124052E-2,8.114583E-1,2.16298E-2,-1.577347E-1,1.0885643E0,1.2766919E-1,-2.9109514E-1,-5.773707E-3,8.383194E-1,-3.976345E-1,4.1365266E-1,8.438139E-2,-8.471003E-1,1.0221266E0,-1.320411E-1,1.1866373E-1,-6.5079975E-1,6.023553E-1,1.8816015E-2,-5.6442503E-2,6.440131E-1,-1.8266153E-2,-1.0751181E0,-1.6567014E-2,1.1776353E0,-5.6969625E-1,5.997089E-1,-8.283396E-1,4.873859E-2],"categories":[],"categories_nodes":[],"categories_segments":[],"categories_sizes":[],"default_left":[true,true,true,false,false,true,true,true,true,true,true,true,true,true,false,true,true,false,false,false,false,false,false,false,false,false,false,false,false],"id":13,"left_children":[1,3,5,-1,-1,7,9,11,13,15,17,19,21,23,-1,25,27,-1,-1,-1,-1,-1,-1,-1,-1,-1,-1,-1,-1],"loss_changes":[3.0741112E0,1.5845704E0,2.687689E0,0E0,0E0,5.7311516E0,1.7070237E0,4.002872E0,1.8388271E0,2.476559E0,2.2619683E-1,3.7974603E0,9.4555926E-1,1.3353062E0,0E0,2.6215956E0,1.5892239E0,0E0,0E0,0E0,0E0,0E0,0E0,0E0,0E0,0E0,0E0,0E0,0E0],"parents":[2147483647,0,0,1,1,2,2,5,5,6,6,7,7,8,8,9,9,10,10,11,11,12,12,13,13,15,15,16,16],"right_children":[2,4,6,-1,-1,8,10,12,14,16,18,20,22,24,-1,26,28,-1,-1,-1,-1,-1,-1,-1,-1,-1,-1,-1,-1],"split_conditions":[-2.715752E-1,-9.813486E-2,-2.7317012E-2,-1.5773471E-2,1.0885643E-1,-1.0790233E-1,1.3532019E0,-1.536507E-1,-7.7655795E-3,-3.6251396E-2,1.8841057E0,-7.981838E-2,-1.7069702E-1,-2.5664803E-1,-1.320411E-2,-1.9994195E-1,1.3625154E0,6.023553E-2,1.8816015E-3,-5.64425E-3,6.440131E-2,-1.8266153E-3,-1.0751181E-1,-1.6567014E-3,1.17763534E-1,-5.6969624E-2,5.9970893E-2,-8.283396E-2,4.873859E-3],"split_indices":[5,0,1,0,0,6,4,6,0,9,5,0,5,4,0,9,9,0,0,0,0,0,0,0,0,0,0,0,0],"split_type":[0,0,0,0,0,0,0,0,0,0,0,0,0,0,0,0,0,0,0,0,0,0,0,0,0,0,0,0,0],"sum_hessian":[8.318932E1,4.260716E0,7.8928604E1,1.0431213E0,3.2175949E0,5.9384235E1,1.9544373E1,5.0831238E1,8.552999E0,1.7356327E1,2.188044E0,4.672407E1,4.1071653E0,7.146038E0,1.4069606E0,5.885296E0,1.1471032E1,1.1248622E0,1.0631819E0,3.804875E1,8.675319E0,1.1191639E0,2.9880016E0,1.0469021E0,6.0991364E0,2.34516E0,3.5401359E0,9.002191E0,2.4688413E0],"tree_param":{"num_deleted":"0","num_feature":"10","num_nodes":"29","size_leaf_vector":"0"}},{"base_weights":[-6.4510764E-3,7.249634E-1,-4.9444903E-2,2.5167492E-1,9.2048997E-1,-4.2069277E-1,8.998797E-2,-7.0623946E-1,3.9051313E-2,2.4459739E-1,-1.671664E-1,8.261162E-2,-8.07041E-1,4.5739657E-1,-8.3711725E-1,-1.8281716E-1,5.6302965E-1,-2.811177E-1,6.378208E-1,-1.3277447E-1,-8.6921936E-1,1.1204611E0,6.6302327E-4,-9.946016E-1,-2.8894392E-1,-3.097917E-1,8.706519E-1,-1.9138005E-1,7.332401E-1,1.3405281E-1,-4.512156E-1,9.541683E-1,-3.0247103E-3],"categories":[],"categories_nodes":[],"categories_segments":[],"categories_sizes":[],"default_left":[true,true,true,false,false,true,true,true,true,true,true,false,true,true,true,true,true,true,true,false,false,false,false,false,false,false,false,false,false,false,false,false,false],"id":14,"left_children":[1,3,5,-1,-1,7,9,11,13,15,17,-1,19,21,23,25,27,29,31,-1,-1,-1,-1,-1,-1,-1,-1,-1,-1,-1,-1,-1,-1],"loss_changes":[2.7396607E0,2.1599293E-1,4.29E0,0E0,0E0,2.99505E0,2.4478722E0,1.1796184E0,3.904669E0,5.304016E0,2.318952E0,0E0,4.0878773E-1,2.1645176E0,1.1172771E-2,2.5530922E0,2.9838362E0,1.5524893E0,6.512923E-1,0E0,0E0,0E0,0E0,0E0,0E0,0E0,0E0,0E0,0E0,0E0,0E0,0E0,0E0],"parents":[2147483647,0,0,1,1,2,2,5,5,6,6,7,7,8,8,9,9,10,10,12,12,13,13,14,14,15,15,16,16,17,17,18,18],"right_children":[2,4,6,-1,-1,8,10,12,14,16,18,-1,20,22,24,26,28,30,32,-1,-1,-1,-1,-1,-1,-1,-1,-1,-1,-1,-1,-1,-1],"split_conditions":[-2.8806788E-1,-3.6563706E-1,-1.7435664E-1,2.5167493E-2,9.2048995E-2,-1.2087749E-1,-5.389305E-2,-2.6105762E-1,-1.8166985E-1,-2.2670217E-1,1.3532019E0,8.261162E-3,-7.1732724E-1,-1.1724022E-1,-1.78316E-1,-2.371608E-1,-4.656667E-1,-1.8418264E-1,2.9070125E0,-1.3277448E-2,-8.692194E-2,1.12046115E-1,6.630233E-5,-9.946016E-2,-2.8894393E-2,-3.0979171E-2,8.706519E-2,-1.9138006E-2,7.332402E-2,1.3405281E-2,-4.512156E-2,9.541684E-2,-3.0247105E-4],"split_indices":[5,8,7,0,0,8,8,4,7,5,4,0,7,9,7,3,9,3,5,0,0,0,0,0,0,0,0,0,0,0,0,0,0],"split_type":[0,0,0,0,0,0,0,0,0,0,0,0,0,0,0,0,0,0,0,0,0,0,0,0,0,0,0,0,0,0,0,0,0],"sum_hessian":[8.498195E1,3.8374197E0,8.114453E1,1.7905085E0,2.0469115E0,2.1604408E1,5.9540123E1,1.2996275E1,8.608133E0,3.7214443E1,2.2325682E1,1.492981E0,1.1503294E1,6.1497593E0,2.4583747E0,1.6070183E1,2.114426E1,2.0127306E1,2.1983745E0,1.2359499E0,1.0267344E1,1.9155897E0,4.2341695E0,1.2770883E0,1.1812863E0,1.497159E1,1.0985926E0,3.869485E0,1.7274775E1,5.9112325E0,1.4216074E1,1.1444875E0,1.053887E0],"tree_param":{"num_deleted":"0","num_feature":"10","num_nodes":"33","size_leaf_vector":"0"}},{"base_weights":[2.2866627E-2,2.6503235E-1,-8.513214E-2,-9.286459E-2,6.465732E-1,8.925746E-1,-1.5109381E-1,-3.2945025E-1,5.2559453E-1,-2.2408624E-1,8.997141E-1,-3.4969652E-1,1.6765453E-1,-8.305568E-1,-9.762923E-2,-4.6690732E-1,1.1010115E0,3.6408064E-1,-6.6657585E-1,2.0276208E-1,1.153788E0,-1.2645483E-1,-7.278509E-1,6.7646945E-1,-1.499822E-1,-2.4992464E-1,-1.0285201E0,6.107984E-1,-3.3325237E-1,-5.625912E-1,6.532057E-1,4.6193644E-1,1.4588325E0,-5.7684684E-1,2.4617155E-1,-9.4752866E-1,-3.3824064E-2,8.620033E-1,-7.0711E-2,-3.8804314E-1,4.7876477E-1],"categories":[],"categories_nodes":[],"categories_segments":[],"categories_sizes":[],"default_left":[true,true,true,true,true,false,true,true,true,true,true,true,true,true,true,false,false,false,false,true,true,true,true,true,true,false,false,false,false,false,false,false,false,false,false,false,false,false,false,false,false],"id":15,"left_children":[1,3,5,7,9,-1,11,13,15,17,19,21,23,25,27,-1,-1,-1,-1,29,31,33,35,37,39,-1,-1,-1,-1,-1,-1,-1,-1,-1,-1,-1,-1,-1,-1,-1,-1],"loss_changes":[2.2550313E0,3.688248E0,3.9907782E0,2.3071027E0,3.0636835E0,0E0,3.6585038E0,1.2157524E0,3.0387273E0,1.2123334E0,1.5828896E0,2.8930674E0,3.738834E0,1.3350058E-1,1.666754E0,0E0,0E0,0E0,0E0,1.7307167E0,8.6797714E-1,4.076662E0,1.9371023E0,1.285223E0,2.382275E0,0E0,0E0,0E0,0E0,0E0,0E0,0E0,0E0,0E0,0E0,0E0,0E0,0E0,0E0,0E0,0E0],"parents":[2147483647,0,0,1,1,2,2,3,3,4,4,6,6,7,7,8,8,9,9,10,10,11,11,12,12,13,13,14,14,19,19,20,20,21,21,22,22,23,23,24,24],"right_children":[2,4,6,8,10,-1,12,14,16,18,20,22,24,26,28,-1,-1,-1,-1,30,32,34,36,38,40,-1,-1,-1,-1,-1,-1,-1,-1,-1,-1,-1,-1,-1,-1,-1,-1],"split_conditions":[-1.6523206E-1,-2.5043726E-1,-2.7030367E-1,-2.2504233E-1,-3.9632407E-1,8.9257464E-2,-1.1028643E-1,-2.6182306E-1,-1.7325391E-1,-2.4442129E-1,-1.7170528E-1,-1.8491216E-1,-4.7290377E-2,-2.5229928E-1,-1.8106954E-1,-4.6690732E-2,1.10101156E-1,3.6408063E-2,-6.665759E-2,-2.377006E-1,-1.3021117E-1,-2.2423416E-1,-1.2109789E-1,2.3372301E-1,5.1094574E-1,-2.4992464E-2,-1.0285201E-1,6.107984E-2,-3.3325236E-2,-5.625912E-2,6.5320574E-2,4.6193644E-2,1.4588325E-1,-5.7684686E-2,2.4617156E-2,-9.475287E-2,-3.3824064E-3,8.6200334E-2,-7.0711E-3,-3.8804315E-2,4.7876477E-2],"split_indices":[2,3,4,6,9,0,7,4,2,3,2,6,2,3,7,0,0,0,0,4,8,9,6,8,2,0,0,0,0,0,0,0,0,0,0,0,0,0,0,0,0],"split_type":[0,0,0,0,0,0,0,0,0,0,0,0,0,0,0,0,0,0,0,0,0,0,0,0,0,0,0,0,0,0,0,0,0,0,0,0,0,0,0,0,0],"sum_hessian":[8.435989E1,2.557007E1,5.8789825E1,1.3584243E1,1.1985828E1,2.9235935E0,5.586623E1,1.0163569E1,3.4206727E0,2.7257142E0,9.260114E0,3.4360268E1,2.1505962E1,2.3977723E0,7.7657976E0,1.3245729E0,2.0960996E0,1.246302E0,1.4794122E0,2.9542713E0,6.305843E0,2.2444601E1,1.1915667E1,7.831373E0,1.367459E1,1.1849014E0,1.212871E0,1.5408348E0,6.2249627E0,1.0022932E0,1.9519781E0,2.6989212E0,3.6069217E0,9.913788E0,1.2530812E1,8.773394E0,3.1422727E0,6.150464E0,1.6809093E0,1.0196678E1,3.4779122E0],"tree_param":{"num_deleted":"0","num_feature":"10","num_nodes":"41","size_leaf_vector":"0"}},{"base_weights":[4.6003354E-3,-5.4800797E-2,5.600121E-1,1.6180597E-1,-2.4827933E-1,8.2767725E-1,-1.0169214E-1,-3.9585896E-2,9.95997E-1,-4.9268606E-1,6.0309723E-2,-1.845276E-1,1.1465958E0,-5.4357874E-1,4.2017612E-1,-7.351849E-1,8.337291E-2,-5.884148E-2,1.1891787E0,7.1236587E-1,-5.785471E-1,3.4255284E-1,-5.1917595E-1,3.5035726E-1,1.2722245E0,5.9058186E-2,-9.841116E-1,8.7373817E-1,5.241825E-3,-6.381345E-1,2.532477E-1,1.026299E0,1.270703E-1,4.6216178E-1,-8.3123595E-1],"categories":[],"categories_nodes":[],"categories_segments":[],"categories_sizes":[],"default_left":[true,true,true,true,true,true,true,true,true,true,true,false,true,false,false,true,true,false,false,false,true,true,true,false,false,false,false,false,false,false,false,false,false,false,false],"id":16,"left_children":[1,3,5,7,9,11,13,15,17,19,21,-1,23,-1,-1,25,27,-1,-1,-1,29,31,33,-1,-1,-1,-1,-1,-1,-1,-1,-1,-1,-1,-1],"loss_changes":[2.8739295E0,3.341073E0,1.5746806E0,6.384144E0,3.1972277E0,2.1811118E0,9.9269927E-1,2.7455354E0,1.5743899E0,2.8482747E0,3.359427E0,0E0,3.2218456E-2,0E0,0E0,1.0103047E0,1.6977708E0,0E0,0E0,0E0,1.2783365E0,1.8856848E0,2.457031E0,0E0,0E0,0E0,0E0,0E0,0E0,0E0,0E0,0E0,0E0,0E0,0E0],"parents":[2147483647,0,0,1,1,2,2,3,3,4,4,5,5,6,6,7,7,8,8,9,9,10,10,12,12,15,15,16,16,20,20,21,21,22,22],"right_children":[2,4,6,8,10,12,14,16,18,20,22,-1,24,-1,-1,26,28,-1,-1,-1,30,32,34,-1,-1,-1,-1,-1,-1,-1,-1,-1,-1,-1,-1],"split_conditions":[6.124275E-1,-1.5788558E-1,1.8693447E-1,-8.370931E-2,-1.1933269E-1,-1.7214051E-1,1.3685982E0,-2.6341105E-1,-2.4229434E-1,-2.6388085E-1,1.2920496E-1,-1.8452762E-2,-2.9731074E-1,-5.4357875E-2,4.2017613E-2,-2.4621841E-1,-2.610548E-1,-5.884148E-3,1.18917875E-1,7.123659E-2,4.398556E-2,-2.0322603E-1,-6.785355E-2,3.5035726E-2,1.2722246E-1,5.9058187E-3,-9.8411165E-2,8.7373815E-2,5.241825E-4,-6.381345E-2,2.5324771E-2,1.026299E-1,1.27070295E-2,4.621618E-2,-8.3123595E-2],"split_indices":[8,2,0,0,7,5,4,4,5,4,5,0,1,0,0,5,4,0,0,0,0,4,0,0,0,0,0,0,0,0,0,0,0,0,0],"split_type":[0,0,0,0,0,0,0,0,0,0,0,0,0,0,0,0,0,0,0,0,0,0,0,0,0,0,0,0,0,0,0,0,0,0,0],"sum_hessian":[8.517947E1,7.776396E1,7.4155006E0,3.6766327E1,4.0997635E1,5.101196E0,2.3143046E0,3.0383608E1,6.382718E0,2.2545063E1,1.8452574E1,1.3231361E0,3.77806E0,1.230657E0,1.0836477E0,3.8161094E0,2.65675E1,1.095627E0,5.2870913E0,1.0141953E0,2.1530867E1,1.268373E1,5.768844E0,1.0311882E0,2.7468717E0,1.0926315E0,2.723478E0,1.4739735E0,2.5093525E1,2.0308825E1,1.2220433E0,2.1377273E0,1.0546002E1,1.2758054E0,4.4930387E0],"tree_param":{"num_deleted":"0","num_feature":"10","num_nodes":"35","size_leaf_vector":"0"}},{"base_weights":[8.820657E-2,2.117511E-1,-2.6344192E-1,1.1159682E-1,8.081899E-1,-4.927901E-1,2.5469393E-1,6.64084E-2,9.56533E-1,1.1146466E0,-7.172172E-2,-1.786346E-1,-8.1305295E-1,8.099283E-1,-5.382557E-1,1.2038705E-1,-4.4761652E-1,4.0760726E-1,-5.522079E-1,-5.924128E-1,3.8728708E-1,-1.0636935E0,2.7996433E-1,2.6377937E-1,1.1240982E0,1.4076386E-1,-9.0852153E-1,-5.532177E-2,3.5700747E-1,-7.2592443E-1,2.1712677E-1,-7.9897577E-1,1.3265476E-1,7.2826785E-1,-3.8392305E-1,-1.2352581E0,-1.3211185E-1,5.501009E-1,-1.4784135E-1],"categories":[],"categories_nodes":[],"categories_segments":[],"categories_sizes":[],"default_left":[true,true,true,true,true,true,true,true,false,false,true,true,true,true,true,true,true,false,false,true,true,true,false,true,false,false,false,false,false,false,false,false,false,false,false,false,false,false,false],"id":17,"left_children":[1,3,5,7,9,11,13,15,-1,-1,17,19,21,23,25,27,29,-1,-1,31,33,35,-1,37,-1,-1,-1,-1,-1,-1,-1,-1,-1,-1,-1,-1,-1,-1,-1],"loss_changes":[3.6428883E0,3.5928664E0,2.7294269E0,1.9964066E0,2.4271498E0,1.4172459E0,3.686285E0,1.5046587E0,0E0,0E0,9.593252E-1,2.3653097E0,2.327403E0,5.170276E-1,1.0433428E0,2.0198197E0,1.1160992E0,0E0,0E0,9.543202E-1,1.4516584E0,8.3331823E-1,0E0,4.393802E-1,0E0,0E0,0E0,0E0,0E0,0E0,0E0,0E0,0E0,0E0,0E0,0E0,0E0,0E0,0E0],"parents":[2147483647,0,0,1,1,2,2,3,3,4,4,5,5,6,6,7,7,10,10,11,11,12,12,13,13,14,14,15,15,16,16,19,19,20,20,21,21,23,23],"right_children":[2,4,6,8,10,12,14,16,-1,-1,18,20,22,24,26,28,30,-1,-1,32,34,36,-1,38,-1,-1,-1,-1,-1,-1,-1,-1,-1,-1,-1,-1,-1,-1,-1],"split_conditions":[-3.305668E-2,-8.75412E-2,2.5135612E-1,-1.8381674E-2,9.4930935E-1,-5.7184864E-3,6.9022477E-1,-6.645123E-2,9.56533E-2,1.1146466E-1,-2.6290527E-1,-1.3349637E-1,2.6652634E-1,4.584352E-1,6.060871E-1,-8.551642E-2,-1.0532676E-1,4.0760726E-2,-5.522079E-2,-2.9292665E-3,2.7813055E-2,7.113235E-2,2.7996434E-2,2.1559769E-1,1.1240982E-1,1.4076387E-2,-9.085216E-2,-5.532177E-3,3.570075E-2,-7.2592445E-2,2.1712678E-2,-7.9897575E-2,1.3265476E-2,7.282679E-2,-3.8392305E-2,-1.2352581E-1,-1.3211185E-2,5.501009E-2,-1.4784135E-2],"split_indices":[1,7,1,5,6,3,7,1,0,0,1,3,2,2,0,0,2,0,0,0,0,0,0,3,0,0,0,0,0,0,0,0,0,0,0,0,0,0,0],"split_type":[0,0,0,0,0,0,0,0,0,0,0,0,0,0,0,0,0,0,0,0,0,0,0,0,0,0,0,0,0,0,0,0,0,0,0,0,0,0,0],"sum_hessian":[8.1567986E1,6.065568E1,2.0912306E1,5.29512E1,7.7044845E0,1.4529757E1,6.382549E0,5.1286896E1,1.6643021E0,5.5164413E0,2.1880436E0,8.121201E0,6.408556E0,3.7413745E0,2.6411746E0,4.7106007E1,4.1808877E0,1.171271E0,1.0167726E0,4.664155E0,3.4570458E0,5.2349534E0,1.1736026E0,2.0380542E0,1.7033203E0,1.1507246E0,1.4904499E0,2.747208E1,1.9633928E1,2.882172E0,1.2987156E0,3.5506775E0,1.1134776E0,2.4357786E0,1.021267E0,4.145516E0,1.0894375E0,1.0035573E0,1.0344968E0],"tree_param":{"num_deleted":"0","num_feature":"10","num_nodes":"39","size_leaf_vector":"0"}},{"base_weights":[4.6207514E-2,1.6223465E-1,-2.6468936E-1,-7.0154466E-2,3.762806E-1,-7.71772E-1,-3.757806E-3,2.2498909E-1,-4.12305E-1,-1.02134734E-1,5.6485915E-1,-1.0253255E0,-7.7835344E-2,-1.3789919E-1,6.811828E-1,-3.0387335E-2,9.759875E-1,4.6440467E-1,-5.1959676E-1,1.7171907E-1,-5.612521E-1,-3.937427E-1,6.585739E-1,-1.9020043E-1,-1.172774E0,4.8786235E-1,-6.323048E-1,2.980219E-1,-6.704814E-1,-2.4484128E-1,4.9282494E-1,1.2225122E-1,1.20236E0,-2.2123761E-1,-7.84648E-1,8.166252E-1,-1.7247334E-1,-8.69566E-1,1.1189418E-1,1.0379049E0,3.0738044E-1,-4.3270007E-1,5.4806244E-1,1.8088941E-1,-9.322184E-1],"categories":[],"categories_nodes":[],"categories_segments":[],"categories_sizes":[],"default_left":[true,true,true,true,true,true,true,true,true,true,true,true,true,true,false,true,true,false,true,true,true,false,true,false,false,false,false,true,true,false,false,false,false,false,false,false,false,false,false,false,false,false,false,false,false],"id":18,"left_children":[1,3,5,7,9,11,13,15,17,19,21,23,25,27,-1,29,31,-1,33,35,37,-1,39,-1,-1,-1,-1,41,43,-1,-1,-1,-1,-1,-1,-1,-1,-1,-1,-1,-1,-1,-1,-1,-1],"loss_changes":[3.0165038E0,3.0432367E0,3.0116348E0,3.1143684E0,2.9201584E0,1.2812843E0,1.5683651E0,3.2346835E0,1.5779865E0,1.3307182E0,2.3174977E0,4.6446705E-1,1.2972206E0,3.508402E0,0E0,1.6287556E0,6.7840433E-1,0E0,8.6496234E-1,1.675797E0,9.071709E-1,0E0,2.511138E0,0E0,0E0,0E0,0E0,1.7954781E0,1.6665471E0,0E0,0E0,0E0,0E0,0E0,0E0,0E0,0E0,0E0,0E0,0E0,0E0,0E0,0E0,0E0,0E0],"parents":[2147483647,0,0,1,1,2,2,3,3,4,4,5,5,6,6,7,7,8,8,9,9,10,10,11,11,12,12,13,13,15,15,16,16,18,18,19,19,20,20,22,22,27,27,28,28],"right_children":[2,4,6,8,10,12,14,16,18,20,22,24,26,28,-1,30,32,-1,34,36,38,-1,40,-1,-1,-1,-1,42,44,-1,-1,-1,-1,-1,-1,-1,-1,-1,-1,-1,-1,-1,-1,-1,-1],"split_conditions":[-5.3425692E-2,-2.4942939E-1,-1.0550186E-1,-2.571951E-1,-2.9917225E-1,-1.1523874E-1,1.1890643E0,-1.6500345E-1,-8.642678E-2,-3.7554145E-1,-7.2307485E-1,-2.3707196E-1,-3.66604E-2,1.971575E-1,6.811828E-2,-8.538567E-2,-2.953686E-1,4.6440467E-2,-1.6466138E-1,-2.3353447E-1,-8.321522E-2,-3.9374273E-2,-6.650075E-2,-1.9020043E-2,-1.172774E-1,4.8786234E-2,-6.323048E-2,-1.9974169E-1,8.216582E-2,-2.4484128E-2,4.9282495E-2,1.2225122E-2,1.20236E-1,-2.2123761E-2,-7.84648E-2,8.166252E-2,-1.7247334E-2,-8.6956605E-2,1.1189419E-2,1.03790484E-1,3.0738045E-2,-4.3270007E-2,5.4806244E-2,1.8088942E-2,-9.3221836E-2],"split_indices":[0,4,2,4,9,7,8,2,0,9,8,4,4,8,0,0,9,0,2,4,0,0,8,0,0,0,0,7,7,0,0,0,0,0,0,0,0,0,0,0,0,0,0,0,0],"split_type":[0,0,0,0,0,0,0,0,0,0,0,0,0,0,0,0,0,0,0,0,0,0,0,0,0,0,0,0,0,0,0,0,0,0,0,0,0,0,0,0,0,0,0,0,0],"sum_hessian":[8.1433E1,5.9649784E1,2.178321E1,2.8921757E1,3.0728027E1,6.735665E0,1.5047546E1,1.5711359E1,1.3210399E1,8.817307E0,2.191072E1,4.58341E0,2.1522548E0,1.3251075E1,1.7964711E0,1.2440511E1,3.2708485E0,1.0774927E0,1.2132906E1,5.915072E0,2.9022355E0,1.6661621E0,2.0244558E1,1.0314398E0,3.55197E0,1.1248024E0,1.0274525E0,7.528985E0,5.7220902E0,9.201179E0,3.2393317E0,1.0082818E0,2.2625668E0,6.57093E0,5.5619755E0,1.5807225E0,4.3343496E0,1.790403E0,1.1118325E0,8.792376E0,1.1452183E1,1.7332346E0,5.79575E0,1.4181288E0,4.3039613E0],"tree_param":{"num_deleted":"0","num_feature":"10","num_nodes":"45","size_leaf_vector":"0"}},{"base_weights":[-3.119863E-2,6.320496E-1,-7.3641844E-2,7.959213E-1,1.753413E-4,2.1762671E-2,-3.290856E-1,9.1762054E-1,2.1509294E-1,-3.9392296E-2,7.960139E-1,-6.2615675E-1,2.7672948E-2,-1.099289E-1,4.4445992E-1,2.4997492E-1,9.737213E-1,-1.3179297E-2,-7.959293E-1,4.23612E-1,-3.4908527E-1,-2.8406084E-2,-4.6061778E-1,7.066785E-1,-1.2121562E-1,-6.6944325E-1,6.6344106E-1,-9.4447345E-1,1.7387648E-1,-3.7744632E-1,7.7786934E-1,3.7552574E-1,-6.50312E-1],"categories":[],"categories_nodes":[],"categories_segments":[],"categories_sizes":[],"default_left":[true,true,true,true,false,true,true,false,false,true,true,true,true,true,true,false,false,true,true,true,true,false,false,false,false,false,false,false,false,false,false,false,false],"id":19,"left_children":[1,3,5,7,-1,9,11,-1,-1,13,15,17,19,21,23,-1,-1,25,27,29,31,-1,-1,-1,-1,-1,-1,-1,-1,-1,-1,-1,-1],"loss_changes":[2.4328477E0,5.3858685E-1,1.9706192E0,9.463954E-2,0E0,2.8532228E0,2.345792E0,0E0,0E0,1.9664781E0,1.8450642E-1,1.2414603E0,1.779829E0,1.4117923E0,1.1754639E0,0E0,0E0,2.0542796E0,1.5189743E0,1.935554E0,1.5874553E0,0E0,0E0,0E0,0E0,0E0,0E0,0E0,0E0,0E0,0E0,0E0,0E0],"parents":[2147483647,0,0,1,1,2,2,3,3,5,5,6,6,9,9,10,10,11,11,12,12,13,13,14,14,17,17,18,18,19,19,20,20],"right_children":[2,4,6,8,-1,10,12,-1,-1,14,16,18,20,22,24,-1,-1,26,28,30,32,-1,-1,-1,-1,-1,-1,-1,-1,-1,-1,-1,-1],"split_conditions":[-2.715752E-1,-2.1365809E-3,-5.3425692E-2,-2.1679637E-1,1.753413E-5,-6.9530785E-2,1.6259372E-2,9.176206E-2,2.1509295E-2,-1.0790233E-1,-6.619571E-2,-1.7227781E-1,1.3527161E-1,-1.8491216E-1,8.75606E-1,2.4997493E-2,9.737214E-2,-2.214362E-1,3.0489242E-1,-1.2582493E-1,1.8693447E-1,-2.8406084E-3,-4.606178E-2,7.0667855E-2,-1.2121562E-2,-6.694432E-2,6.6344105E-2,-9.4447345E-2,1.7387649E-2,-3.7744634E-2,7.778694E-2,3.7552577E-2,-6.50312E-2],"split_indices":[5,1,0,7,0,0,0,0,0,6,0,5,7,6,7,0,0,6,7,5,0,0,0,0,0,0,0,0,0,0,0,0,0],"split_type":[0,0,0,0,0,0,0,0,0,0,0,0,0,0,0,0,0,0,0,0,0,0,0,0,0,0,0,0,0,0,0,0,0],"sum_hessian":[8.3769775E1,4.2027607E0,7.956702E1,3.1311116E0,1.071649E0,5.8596775E1,2.0970238E1,2.1093068E0,1.0218048E0,5.5186905E1,3.4098682E0,1.1030262E1,9.939977E0,4.8839783E1,6.3471217E0,1.4281816E0,1.9816867E0,2.6261096E0,8.404153E0,4.7859807E0,5.153996E0,4.0504837E1,8.334948E0,4.166485E0,2.180637E0,1.338493E0,1.2876166E0,7.310528E0,1.0936248E0,1.4474657E0,3.338515E0,1.4409904E0,3.7130055E0],"tree_param":{"num_deleted":"0","num_feature":"10","num_nodes":"33","size_leaf_vector":"0"}},{"base_weights":[-2.707494E-3,-2.5001258E-1,1.15601346E-1,7.3439133E-1,-3.2696518E-1,7.936897E-1,4.568384E-2,-3.9111206E-1,5.523668E-1,1.942167E-1,1.2386293E0,-6.48318E-1,1.0700156E-1,-5.837956E-1,-1.3802506E-1,-4.5739123E-1,7.087419E-1,-9.837634E-2,-9.535042E-1,5.023549E-1,2.1656716E-2,-2.0848699E-1,-8.633737E-1,8.657743E-1,-4.1305217E-1,-1.4509504E-1,8.979721E-1,-4.7959712E-1,1.6096365E-1],"categories":[],"categories_nodes":[],"categories_segments":[],"categories_sizes":[],"default_left":[true,true,true,false,true,true,true,true,false,true,false,true,true,true,true,false,false,false,false,true,true,false,false,false,false,false,false,false,false],"id":20,"left_children":[1,3,5,-1,7,9,11,13,-1,15,-1,17,19,21,23,-1,-1,-1,-1,25,27,-1,-1,-1,-1,-1,-1,-1,-1],"loss_changes":[2.422016E0,2.2690258E0,2.6191454E0,0E0,1.6562836E0,1.1395478E0,2.2751837E0,1.1084683E0,0E0,1.4608221E0,0E0,6.362245E-1,1.6250777E0,1.2400699E0,3.6288083E0,0E0,0E0,0E0,0E0,2.3236837E0,2.934706E0,0E0,0E0,0E0,0E0,0E0,0E0,0E0,0E0],"parents":[2147483647,0,0,1,1,2,2,4,4,5,5,6,6,7,7,9,9,11,11,12,12,13,13,14,14,19,19,20,20],"right_children":[2,4,6,-1,8,10,12,14,-1,16,-1,18,20,22,24,-1,-1,-1,-1,26,28,-1,-1,-1,-1,-1,-1,-1,-1],"split_conditions":[-1.7435664E-1,-7.3406005E-1,-1.7101556E-1,7.3439136E-2,9.147554E-1,-1.9738314E-1,-2.381241E-1,-1.15077004E-1,5.523668E-2,-1.673373E-1,1.2386294E-1,-2.4680552E-1,-2.1863924E-1,-1.9391517E-1,-2.5770992E-1,-4.5739125E-2,7.087419E-2,-9.837634E-3,-9.535042E-2,-2.4902591E-1,-1.9772741E-1,-2.0848699E-2,-8.633737E-2,8.657743E-2,-4.1305218E-2,-1.4509504E-2,8.979721E-2,-4.795971E-2,1.6096367E-2],"split_indices":[7,6,7,0,9,9,6,1,0,2,0,6,6,7,4,0,0,0,0,3,6,0,0,0,0,0,0,0,0],"split_type":[0,0,0,0,0,0,0,0,0,0,0,0,0,0,0,0,0,0,0,0,0,0,0,0,0,0,0,0,0],"sum_hessian":[8.0792435E1,2.5783361E1,5.5009075E1,1.249965E0,2.4533396E1,4.174199E0,5.0834877E1,2.3382845E1,1.1505508E0,2.390265E0,1.783934E0,3.3496795E0,4.74852E1,1.253377E1,1.0849076E1,1.1036352E0,1.2866297E0,1.6673982E0,1.6822813E0,7.5631785E0,3.992202E1,6.096066E0,6.437704E0,1.8712803E0,8.977796E0,3.1087599E0,4.4544187E0,8.150864E0,3.1771154E1],"tree_param":{"num_deleted":"0","num_feature":"10","num_nodes":"29","size_leaf_vector":"0"}},{"base_weights":[2.0360632E-2,1.6785444E-1,-1.3355938E-1,-9.672102E-2,5.094001E-1,-3.671533E-1,1.12825155E-1,1.4348993E-1,-6.539013E-1,6.9270337E-1,-7.960278E-2,-1.4431853E-2,-7.1959096E-1,4.9508977E-1,-2.4085292E-1,-2.5606146E-1,7.592657E-1,3.1903133E-1,-8.8341796E-1,-3.8610276E-2,7.997677E-1,-5.961986E-1,5.064065E-1,-6.016567E-1,3.464127E-1,-9.41447E-1,-1.8550219E-1,-5.2848893E-1,6.951836E-1,-4.5053637E-1,5.4156566E-1,6.765928E-1,-4.665131E-1,1.355712E0,1.1097515E-1,-1.0057391E0,-3.0921662E-1,9.94024E-1,1.9079661E-1,-8.462065E-1,-8.7075956E-2,8.026037E-1,-5.51009E-2,-8.14466E-1,1.1025688E-1,8.1193423E-1,-8.024875E-1,-2.6686206E-1,-1.035125E0,-8.9591813E-1,3.3290598E-1,1.0527276E0,1.4582366E-1,-5.591335E-1,1.1327552E-1],"categories":[],"categories_nodes":[],"categories_segments":[],"categories_sizes":[],"default_left":[true,true,true,true,true,true,true,true,true,true,true,true,true,true,true,true,true,false,true,false,true,true,true,true,true,true,true,false,true,true,false,false,false,false,false,false,false,false,false,false,false,false,false,false,false,false,false,false,false,false,false,false,false,false,false],"id":21,"left_children":[1,3,5,7,9,11,13,15,17,19,21,23,25,27,29,31,33,-1,35,-1,37,39,41,43,45,47,49,-1,51,53,-1,-1,-1,-1,-1,-1,-1,-1,-1,-1,-1,-1,-1,-1,-1,-1,-1,-1,-1,-1,-1,-1,-1,-1,-1],"loss_changes":[1.9483163E0,4.0039763E0,2.462661E0,3.506918E0,2.1348681E0,2.7033656E0,2.990715E0,4.7802625E0,2.0374696E0,1.1892061E0,1.9575052E0,2.73659E0,1.1167889E0,2.524931E0,2.1642675E0,2.681194E0,2.7832317E0,0E0,1.5444946E-1,0E0,1.3423681E0,3.5473728E-1,5.603061E-1,8.3314276E-1,4.9434457E0,1.9486952E-1,1.9349332E0,0E0,1.6621132E0,6.6195023E-1,0E0,0E0,0E0,0E0,0E0,0E0,0E0,0E0,0E0,0E0,0E0,0E0,0E0,0E0,0E0,0E0,0E0,0E0,0E0,0E0,0E0,0E0,0E0,0E0,0E0],"parents":[2147483647,0,0,1,1,2,2,3,3,4,4,5,5,6,6,7,7,8,8,9,9,10,10,11,11,12,12,13,13,14,14,15,15,16,16,18,18,20,20,21,21,22,22,23,23,24,24,25,25,26,26,28,28,29,29],"right_children":[2,4,6,8,10,12,14,16,18,20,22,24,26,28,30,32,34,-1,36,-1,38,40,42,44,46,48,50,-1,52,54,-1,-1,-1,-1,-1,-1,-1,-1,-1,-1,-1,-1,-1,-1,-1,-1,-1,-1,-1,-1,-1,-1,-1,-1,-1],"split_conditions":[-1.533387E-1,-1.2055267E-1,-1.08490385E-1,-1.4037192E-1,-1.6526297E-1,-1.803516E-1,-2.0739758E-2,-1.8265355E-1,-2.625782E-1,-2.5911623E-1,-2.2482428E-1,-2.5540936E-1,-1.0500299E-1,-4.3588528E-1,1.043164E0,-2.5965112E-1,-2.5474334E-1,3.1903133E-2,-2.2895186E-1,-3.8610275E-3,-2.2712493E-1,-1.0703021E-1,-1.3038576E-1,-7.5604044E-2,-4.0986007E-3,-1.393408E-1,-1.6423246E-1,-5.2848894E-2,2.0472667E-1,6.701273E-1,5.4156568E-2,6.765928E-2,-4.665131E-2,1.3557121E-1,1.1097515E-2,-1.0057391E-1,-3.0921662E-2,9.94024E-2,1.9079661E-2,-8.462065E-2,-8.707596E-3,8.026037E-2,-5.51009E-3,-8.14466E-2,1.1025689E-2,8.1193425E-2,-8.024875E-2,-2.6686206E-2,-1.035125E-1,-8.9591816E-2,3.32906E-2,1.0527276E-1,1.4582366E-2,-5.5913355E-2,1.1327553E-2],"split_indices":[7,8,6,8,7,5,0,7,9,5,6,4,7,4,9,4,4,0,6,0,6,8,9,8,8,7,5,0,5,8,0,0,0,0,0,0,0,0,0,0,0,0,0,0,0,0,0,0,0,0,0,0,0,0,0],"split_type":[0,0,0,0,0,0,0,0,0,0,0,0,0,0,0,0,0,0,0,0,0,0,0,0,0,0,0,0,0,0,0,0,0,0,0,0,0,0,0,0,0,0,0,0,0,0,0,0,0,0,0,0,0,0,0],"sum_hessian":[8.38329E1,4.2763885E1,4.1069016E1,2.450112E1,1.8262768E1,2.0830105E1,2.023891E1,1.763906E1,6.8620605E0,1.3793913E1,4.468856E0,1.0931127E1,9.898979E0,9.53423E0,1.070468E1,1.1052023E1,6.5870347E0,1.2353477E0,5.626713E0,1.8431891E0,1.1950724E1,2.3658528E0,2.103003E0,3.9064915E0,7.024635E0,6.454935E0,3.4440439E0,1.29066E0,8.24357E0,8.776742E0,1.9279388E0,1.6269492E0,9.425075E0,2.862365E0,3.7246697E0,4.0190063E0,1.6077065E0,8.581121E0,3.3696022E0,1.1426566E0,1.2231963E0,1.0956631E0,1.0073398E0,2.896578E0,1.0099134E0,5.2077904E0,1.8168443E0,1.2563732E0,5.198562E0,1.1457381E0,2.298306E0,4.4385285E0,3.8050418E0,7.3662148E0,1.4105268E0],"tree_param":{"num_deleted":"0","num_feature":"10","num_nodes":"55","size_leaf_vector":"0"}},{"base_weights":[-8.283361E-2,-5.2304125E-1,-1.711793E-2,5.134266E-1,-6.987988E-1,1.4650266E-1,-2.1025565E-1,7.948626E-2,-8.0544883E-1,-8.2229145E-2,5.56722E-1,-2.9508615E-1,7.992688E-1,-2.5198135E-1,-9.5389307E-1,2.182669E-3,-9.8870873E-1,-6.658791E-2,9.52349E-1,5.9621483E-1,-3.754759E-1,-4.8236543E-1,9.201387E-2,-1.5104564E-1,4.5780605E-1,5.062725E-1,-8.974483E-1,1.1674055E0,-3.1323472E-1,-8.375355E-1,-2.662241E-1],"categories":[],"categories_nodes":[],"categories_segments":[],"categories_sizes":[],"default_left":[true,true,true,false,true,true,true,false,true,true,true,true,false,true,false,true,false,true,true,false,true,false,false,false,false,false,false,false,false,false,false],"id":22,"left_children":[1,3,5,-1,7,9,11,-1,13,15,17,19,-1,21,-1,23,-1,25,27,-1,29,-1,-1,-1,-1,-1,-1,-1,-1,-1,-1],"loss_changes":[2.3966427E0,2.3202796E0,2.3499887E0,0E0,8.63348E-1,3.8289938E0,3.15348E0,0E0,4.6285248E-1,2.049571E0,3.6544728E0,2.5280726E0,0E0,2.9554194E-1,0E0,1.8477284E0,0E0,3.590428E0,2.8080168E0,0E0,1.2970872E0,0E0,0E0,0E0,0E0,0E0,0E0,0E0,0E0,0E0,0E0],"parents":[2147483647,0,0,1,1,2,2,4,4,5,5,6,6,8,8,9,9,10,10,11,11,13,13,15,15,17,17,18,18,20,20],"right_children":[2,4,6,-1,8,10,12,-1,14,16,18,20,-1,22,-1,24,-1,26,28,-1,30,-1,-1,-1,-1,-1,-1,-1,-1,-1,-1],"split_conditions":[-5.028589E-1,-2.5881597E-1,-1.3328955E-1,5.1342662E-2,-2.4385215E-1,-1.9369982E-1,1.3123152E0,7.948626E-3,-2.7055964E-1,-1.953376E-1,-2.519691E-1,-3.5906863E-1,7.992688E-2,-3.3264774E-1,-9.538931E-2,-2.0169157E-1,-9.887087E-2,-2.562252E-1,1.0782671E-1,5.9621483E-2,-1.3402143E-1,-4.8236545E-2,9.201388E-3,-1.5104564E-2,4.5780607E-2,5.062725E-2,-8.974483E-2,1.1674055E-1,-3.1323474E-2,-8.375355E-2,-2.6622409E-2],"split_indices":[9,4,9,0,3,9,4,0,7,9,4,6,0,6,0,6,0,4,6,0,1,0,0,0,0,0,0,0,0,0,0],"split_type":[0,0,0,0,0,0,0,0,0,0,0,0,0,0,0,0,0,0,0,0,0,0,0,0,0,0,0,0,0,0,0],"sum_hessian":[8.2156494E1,9.767577E0,7.238892E1,1.1376234E0,8.629953E0,3.93198E1,3.306912E1,1.0707555E0,7.559198E0,2.5757421E1,1.3562382E1,3.1158558E1,1.9105607E0,2.16914E0,5.3900576E0,2.4475813E1,1.2816073E0,5.5888486E0,7.973533E0,2.046952E0,2.9111605E1,1.0581921E0,1.1109481E0,1.8816292E1,5.659522E0,3.5392656E0,2.049583E0,6.8817205E0,1.091813E0,4.292252E0,2.4819353E1],"tree_param":{"num_deleted":"0","num_feature":"10","num_nodes":"31","size_leaf_vector":"0"}},{"base_weights":[-6.5211095E-2,2.5778982E-1,-1.3453567E-1,-2.637999E-1,7.055595E-1,7.681825E-1,-1.7001472E-1,-7.400906E-1,1.461174E-1,-2.0408136E-1,8.71088E-1,-2.5709385E-1,2.6101258E-1,6.8288034E-1,-1.8098353E-1,-6.692263E-2,1.0416229E0,-2.0209198E-1,-9.715701E-1,1.0493141E0,-2.4388548E-2,-7.1676314E-1,2.743226E-1,-4.362038E-1,-6.9371484E-2,-7.92672E-1,1.9348258E-1],"categories":[],"categories_nodes":[],"categories_segments":[],"categories_sizes":[],"default_left":[true,true,true,true,true,false,true,false,true,false,true,true,true,false,true,false,false,true,false,false,true,false,false,false,false,false,false],"id":23,"left_children":[1,3,5,7,9,-1,11,-1,13,-1,15,17,19,-1,21,-1,-1,23,-1,-1,25,-1,-1,-1,-1,-1,-1],"loss_changes":[1.8639114E0,3.6375482E0,2.3057115E0,1.5830095E0,1.4160447E0,0E0,2.5504756E0,0E0,9.830469E-1,0E0,1.2130508E0,1.9865367E0,2.6391082E0,0E0,1.1314311E0,0E0,0E0,1.6115463E0,0E0,0E0,1.7445537E0,0E0,0E0,0E0,0E0,0E0,0E0],"parents":[2147483647,0,0,1,1,2,2,3,3,4,4,6,6,8,8,10,10,11,11,12,12,14,14,17,17,20,20],"right_children":[2,4,6,8,10,-1,12,-1,14,-1,16,18,20,-1,22,-1,-1,24,-1,-1,26,-1,-1,-1,-1,-1,-1],"split_conditions":[-8.58224E-2,-1.2715147E-1,-2.5489146E-1,-2.4162239E-1,-2.5169474E-1,7.681825E-2,6.4019606E-2,-7.400906E-2,-1.17365E-1,-2.0408137E-2,-2.443439E-1,1.7812401E-2,-1.762186E-1,6.8288036E-2,9.8799616E-2,-6.692263E-3,1.0416229E-1,-1.7435664E-1,-9.715701E-2,1.04931414E-1,-1.3779898E-1,-7.1676314E-2,2.7432261E-2,-4.362038E-2,-6.9371485E-3,-7.92672E-2,1.9348258E-2],"split_indices":[0,1,3,3,3,0,8,0,3,0,7,8,4,0,3,0,0,7,0,0,3,0,0,0,0,0,0],"split_type":[0,0,0,0,0,0,0,0,0,0,0,0,0,0,0,0,0,0,0,0,0,0,0,0,0,0,0],"sum_hessian":[8.069157E1,1.3777955E1,6.6913605E1,6.5541425E0,7.223812E0,1.7494489E0,6.516416E1,2.6590633E0,3.8950791E0,1.0762904E0,6.147522E0,5.4547607E1,1.0616552E1,1.0630201E0,2.8320591E0,1.0391805E0,5.108341E0,5.183973E1,2.7078767E0,2.1105127E0,8.50604E0,1.0372431E0,1.794816E0,1.7928385E1,3.3911343E1,1.2963685E0,7.2096715E0],"tree_param":{"num_deleted":"0","num_feature":"10","num_nodes":"27","size_leaf_vector":"0"}},{"base_weights":[-6.987929E-2,-9.574124E-2,5.8891547E-1,-4.38214E-2,-6.641151E-1,8.859018E-1,-5.6930456E-2,-1.0814389E-1,5.494343E-1,-7.032019E-2,-1.0909907E0,-6.991262E-2,-6.211372E-1,8.871634E-1,-1.2883683E-1,-7.4720156E-1,5.67413E-1,-1.1259533E-1,8.1301534E-1,-1.079107E0,3.7985358E-1,1.0355815E0,1.5975848E-1,1.702999E-1,-3.6185896E-1],"categories":[],"categories_nodes":[],"categories_segments":[],"categories_sizes":[],"default_left":[true,true,true,true,true,false,false,true,true,true,false,true,true,true,true,false,false,false,false,false,false,false,false,false,false],"id":24,"left_children":[1,3,5,7,9,-1,-1,11,13,15,-1,17,19,21,23,-1,-1,-1,-1,-1,-1,-1,-1,-1,-1],"loss_changes":[1.5183718E0,2.4328425E0,6.989647E-1,3.0173805E0,1.6754203E0,0E0,0E0,1.3445154E0,1.8888729E0,2.1333349E0,0E0,2.6160023E0,2.601838E0,4.0658236E-1,3.019906E-1,0E0,0E0,0E0,0E0,0E0,0E0,0E0,0E0,0E0,0E0],"parents":[2147483647,0,0,1,1,2,2,3,3,4,4,7,7,8,8,9,9,11,11,12,12,13,13,14,14],"right_children":[2,4,6,8,10,-1,-1,12,14,16,-1,18,20,22,24,-1,-1,-1,-1,-1,-1,-1,-1,-1,-1],"split_conditions":[1.3532019E0,4.903949E-1,3.880015E0,5.063755E-2,5.3408496E-2,8.859018E-2,-5.693046E-3,2.5987301E-2,2.5458485E-1,-2.0684503E-2,-1.0909907E-1,-2.7912628E-2,1.8469411E-1,6.638212E-1,5.4188386E-2,-7.472016E-2,5.6741297E-2,-1.12595325E-2,8.130153E-2,-1.0791071E-1,3.798536E-2,1.03558145E-1,1.5975848E-2,1.7029991E-2,-3.6185898E-2],"split_indices":[4,5,6,4,0,0,0,2,7,2,0,5,2,9,2,0,0,0,0,0,0,0,0,0,0],"split_type":[0,0,0,0,0,0,0,0,0,0,0,0,0,0,0,0,0,0,0,0,0,0,0,0,0],"sum_hessian":[8.480896E1,8.242781E1,2.381151E0,7.651538E1,5.9124312E0,1.3764915E0,1.0046593E0,6.9768585E1,6.746799E0,2.9598858E0,2.9525452E0,6.598712E1,3.7814634E0,4.29849E0,2.448309E0,1.352601E0,1.6072849E0,6.3776497E1,2.2106233E0,2.5409143E0,1.2405492E0,3.2181919E0,1.0802984E0,1.1899312E0,1.2583777E0],"tree_param":{"num_deleted":"0","num_feature":"10","num_nodes":"25","size_leaf_vector":"0"}},{"base_weights":[-7.447299E-2,4.364821E-1,-1.0495403E-1,-4.884823E-1,8.149534E-1,-6.1156243E-1,-5.2528188E-2,-7.588999E-1,-2.3707342E-1,5.175139E-1,-1.0175212E-1,9.6379206E-2,-1.0884982E0,2.9664347E-1,-7.5311536E-1,1.0117549E0,-4.017669E-1,5.305501E-1,-1.3431455E-1,1.1926901E0,2.515511E-1,-1.5077241E-1,8.7211806E-1,-7.094286E-1,-8.460124E-2],"categories":[],"categories_nodes":[],"categories_segments":[],"categories_sizes":[],"default_left":[true,true,true,false,false,true,true,true,true,true,true,false,false,false,false,true,false,true,true,false,false,false,false,false,false],"id":25,"left_children":[1,3,5,-1,-1,7,9,11,13,15,17,-1,-1,-1,-1,19,-1,21,23,-1,-1,-1,-1,-1,-1],"loss_changes":[1.3327932E0,2.0944984E0,2.0604465E0,0E0,0E0,2.2258258E-1,2.086809E0,1.4526014E0,1.1912298E0,3.0992422E0,1.4624176E0,0E0,0E0,0E0,0E0,2.6923418E-1,0E0,9.486062E-1,1.7999809E0,0E0,0E0,0E0,0E0,0E0,0E0],"parents":[2147483647,0,0,1,1,2,2,5,5,6,6,7,7,8,8,9,9,10,10,15,15,17,17,18,18],"right_children":[2,4,6,-1,-1,8,10,12,14,16,18,-1,-1,-1,-1,20,-1,22,24,-1,-1,-1,-1,-1,-1],"split_conditions":[-2.7195084E-1,-1.6805404E-1,-2.3966947E-1,-4.884823E-2,8.149534E-2,-1.1531371E-1,-2.4158496E-1,-2.8892606E-1,-7.8719914E-2,-8.050657E-2,-2.29539E-1,9.637921E-3,-1.0884982E-1,2.9664347E-2,-7.5311534E-2,-1.6919558E-1,-4.017669E-2,-3.8967973E-1,-1.2388948E-1,1.1926901E-1,2.515511E-2,-1.5077241E-2,8.721181E-2,-7.0942864E-2,-8.460124E-3],"split_indices":[5,2,5,0,0,1,6,9,0,0,1,0,0,0,0,4,0,0,1,0,0,0,0,0,0],"split_type":[0,0,0,0,0,0,0,0,0,0,0,0,0,0,0,0,0,0,0,0,0,0,0,0,0],"sum_hessian":[8.1634285E1,3.8458762E0,7.778841E1,1.0323046E0,2.8135715E0,6.2947593E0,7.149365E1,3.7807727E0,2.5139863E0,4.926653E0,6.6567E1,1.2485303E0,2.5322425E0,1.4448279E0,1.0691586E0,3.1386168E0,1.788036E0,2.511181E0,6.405582E1,2.0756786E0,1.0629382E0,1.0250703E0,1.4861109E0,4.040654E0,6.0015163E1],"tree_param":{"num_deleted":"0","num_feature":"10","num_nodes":"25","size_leaf_vector":"0"}},{"base_weights":[1.6023466E-2,9.33043E-1,-2.7995454E-2,-5.6873206E-2,4.7468424E-1,-2.1786787E-2,-1.02692E0,-7.7831596E-2,7.203699E-1,-4.66324E-2,8.057469E-1,8.654447E-3,-3.625048E-1],"categories":[],"categories_nodes":[],"categories_segments":[],"categories_sizes":[],"default_left":[true,false,true,true,true,true,false,false,false,true,false,false,false],"id":26,"left_children":[1,-1,3,5,7,9,-1,-1,-1,11,-1,-1,-1],"loss_changes":[3.3362412E0,0E0,1.1769332E0,2.5577376E0,6.547849E-1,1.5627993E0,0E0,0E0,0E0,1.2773683E0,0E0,0E0,0E0],"parents":[2147483647,0,0,2,2,3,3,4,4,5,5,9,9],"right_children":[2,-1,4,6,8,10,-1,-1,-1,12,-1,-1,-1],"split_conditions":[-2.7045864E-1,9.33043E-2,1.3532019E0,1.010235E0,5.8453745E-1,4.0799177E-1,-1.02692E-1,-7.7831596E-3,7.203699E-2,-3.111016E-2,8.057469E-2,8.654447E-4,-3.6250483E-2],"split_indices":[5,0,4,3,8,2,0,0,0,2,0,0,0],"split_type":[0,0,0,0,0,0,0,0,0,0,0,0,0],"sum_hessian":[8.100225E1,2.7851202E0,7.821713E1,7.480653E1,3.4105973E0,7.3182014E1,1.6245208E0,1.2600688E0,2.1505284E0,7.196501E1,1.2170062E0,6.207303E1,9.891981E0],"tree_param":{"num_deleted":"0","num_feature":"10","num_nodes":"13","size_leaf_vector":"0"}},{"base_weights":[2.7998354E-2,1.276613E-1,-2.0613693E-1,-1.8846512E-2,4.6162727E-1,-5.583935E-1,1.0675514E-2,-9.5027596E-2,6.713746E-1,9.121139E-1,-1.6606215E-1,2.2642767E-1,-7.0135987E-1,4.954118E-1,-1.1997877E-1,3.9570633E-1,-1.9647875E-1,9.271742E-1,8.830495E-2,7.069471E-2,1.2056085E0,-5.205974E-1,2.4453604E-1,-2.9263312E-1,-8.4295464E-1,-2.1295942E-1,1.0437404E0,-3.6161062E-1,2.2838032E-1,-5.326707E-1,6.5913385E-1,-7.2539294E-1,-8.453842E-2,-4.6239138E-1,7.5047165E-1,1.3534861E0,2.572884E-1,-7.8050447E-1,2.0384748E-1,-2.5837028E-1,8.511071E-1,-8.5022867E-1,4.8760736E-1,-2.606171E-1,-9.7421604E-1,-9.0110844E-1,2.7563122E-1,8.172382E-1,-3.772147E-1],"categories":[],"categories_nodes":[],"categories_segments":[],"categories_sizes":[],"default_left":[true,true,true,true,true,true,true,true,true,true,true,false,true,true,true,true,true,false,false,true,true,true,true,true,true,false,false,true,true,false,false,false,false,false,false,false,false,false,false,false,false,false,false,false,false,false,false,false,false],"id":27,"left_children":[1,3,5,7,9,11,13,15,17,19,21,-1,23,25,27,29,31,-1,-1,33,35,37,39,41,43,-1,-1,45,47,-1,-1,-1,-1,-1,-1,-1,-1,-1,-1,-1,-1,-1,-1,-1,-1,-1,-1,-1,-1],"loss_changes":[1.9803214E0,2.9128122E0,1.9446639E0,2.2836115E0,5.280181E0,1.2460678E0,1.1167401E0,2.0142074E0,5.625E-1,2.5604553E0,1.3536454E0,0E0,2.4183273E-1,1.6747175E0,1.2572412E0,2.0618787E0,1.8866231E0,0E0,0E0,1.7359481E0,7.5689316E-1,1.070493E0,1.61822E0,2.0258467E0,1.8466139E-1,0E0,0E0,3.2141824E0,2.5649695E0,0E0,0E0,0E0,0E0,0E0,0E0,0E0,0E0,0E0,0E0,0E0,0E0,0E0,0E0,0E0,0E0,0E0,0E0,0E0,0E0],"parents":[2147483647,0,0,1,1,2,2,3,3,4,4,5,5,6,6,7,7,8,8,9,9,10,10,12,12,13,13,14,14,15,15,16,16,19,19,20,20,21,21,22,22,23,23,24,24,27,27,28,28],"right_children":[2,4,6,8,10,12,14,16,18,20,22,-1,24,26,28,30,32,-1,-1,34,36,38,40,42,44,-1,-1,46,48,-1,-1,-1,-1,-1,-1,-1,-1,-1,-1,-1,-1,-1,-1,-1,-1,-1,-1,-1,-1],"split_conditions":[-6.221178E-2,-1.1085215E-1,-1.2811367E-1,2.0542705E-2,-2.1462788E-1,-2.4734125E-1,-5.231733E-2,-2.4184403E-1,-2.4102099E-1,-1.6251102E-1,-1.657239E-1,2.2642767E-2,-2.0323628E-1,-1.1891548E-1,3.6993122E-1,-1.7175215E-1,-2.3745398E-1,9.2717424E-2,8.830495E-3,-2.2908212E-1,-5.3910956E-2,-1.310044E-1,-1.819237E-1,-2.173037E-1,-1.7691126E-1,-2.1295942E-2,1.0437404E-1,-1.6637349E-3,1.0158815E0,-5.326707E-2,6.591339E-2,-7.253929E-2,-8.453842E-3,-4.6239138E-2,7.5047165E-2,1.353486E-1,2.572884E-2,-7.805045E-2,2.038475E-2,-2.5837028E-2,8.511072E-2,-8.502287E-2,4.876074E-2,-2.6061712E-2,-9.742161E-2,-9.0110846E-2,2.7563123E-2,8.1723824E-2,-3.772147E-2],"split_indices":[1,1,4,4,4,4,4,6,1,2,9,0,4,6,1,2,6,0,0,5,0,2,6,6,5,0,0,9,1,0,0,0,0,0,0,0,0,0,0,0,0,0,0,0,0,0,0,0,0],"split_type":[0,0,0,0,0,0,0,0,0,0,0,0,0,0,0,0,0,0,0,0,0,0,0,0,0,0,0,0,0,0,0,0,0,0,0,0,0,0,0,0,0,0,0,0,0,0,0,0,0],"sum_hessian":[8.273851E1,5.835405E1,2.4384462E1,4.121637E1,1.7137678E1,8.690113E0,1.5694349E1,3.7896034E1,3.320338E0,9.713363E0,7.4243155E0,1.249136E0,7.4409766E0,2.73936E0,1.2954989E1,5.995324E0,3.190071E1,1.8976542E0,1.4226837E0,2.8328218E0,6.8805404E0,3.8403907E0,3.583925E0,2.7035675E0,4.737409E0,1.4621142E0,1.277246E0,7.6267896E0,5.3282E0,1.0992494E0,4.896075E0,4.614969E0,2.728574E1,1.7669535E0,1.0658685E0,5.582742E0,1.2977982E0,2.769428E0,1.0709627E0,2.273238E0,1.3106871E0,1.5244354E0,1.1791321E0,1.4205704E0,3.316839E0,3.905913E0,3.7208765E0,2.524242E0,2.803958E0],"tree_param":{"num_deleted":"0","num_feature":"10","num_nodes":"49","size_leaf_vector":"0"}},{"base_weights":[-2.3966296E-2,-2.448659E-1,1.3987416E-1,-6.58616E-2,-7.366475E-1,4.3615654E-1,-6.172286E-3,-8.4596E-1,6.2950306E-2,-1.1261288E-2,-9.80191E-1,1.19038634E-1,1.0582997E0,-6.4535004E-1,1.5475716E-1,-1.0560517E0,-1.9439843E-1,-8.8389695E-2,6.50325E-1,-3.3477163E-1,2.9649076E-1,-8.397879E-2,-1.2093965E0,6.0511786E-1,-2.8338858E-1,1.2576832E-1,-8.5553503E-1,6.9386256E-1,-4.7936536E-2,1.2297403E-1,-5.88877E-1,1.02947E0,-2.0862949E-1,7.0392005E-2,9.869218E-1,2.712602E-1,-6.131878E-1,-5.8089774E-2,9.511234E-1,-1.9443336E-1,4.1219693E-1],"categories":[],"categories_nodes":[],"categories_segments":[],"categories_sizes":[],"default_left":[true,true,true,true,true,true,true,true,true,true,true,true,false,true,true,false,false,true,true,false,false,false,false,true,true,false,false,true,true,false,false,false,false,false,false,false,false,false,false,false,false],"id":28,"left_children":[1,3,5,7,9,11,13,15,17,19,21,23,-1,25,27,-1,-1,29,31,-1,-1,-1,-1,33,35,-1,-1,37,39,-1,-1,-1,-1,-1,-1,-1,-1,-1,-1,-1,-1],"loss_changes":[2.944447E0,2.9978518E0,2.0279334E0,2.71302E0,1.6030598E0,2.925629E0,3.4260614E0,3.176825E-1,2.1596797E0,4.286175E-1,1.3011155E0,2.3959706E0,0E0,1.1930921E0,2.9441798E0,0E0,0E0,2.1546896E0,1.8315635E0,0E0,0E0,0E0,0E0,1.0472047E0,1.4289324E0,0E0,0E0,1.4758532E0,1.4482119E0,0E0,0E0,0E0,0E0,0E0,0E0,0E0,0E0,0E0,0E0,0E0,0E0],"parents":[2147483647,0,0,1,1,2,2,3,3,4,4,5,5,6,6,7,7,8,8,9,9,10,10,11,11,13,13,14,14,17,17,18,18,23,23,24,24,27,27,28,28],"right_children":[2,4,6,8,10,12,14,16,18,20,22,24,-1,26,28,-1,-1,30,32,-1,-1,-1,-1,34,36,-1,-1,38,40,-1,-1,-1,-1,-1,-1,-1,-1,-1,-1,-1,-1],"split_conditions":[-2.3729423E-1,-2.4424571E-1,-1.507445E-1,-1.254286E-1,-2.3254593E-1,-1.7651647E-1,-1.3247204E-1,-2.1311876E-1,-2.5368142E-1,-2.5533438E-1,-1.8340442E-1,-3.7230873E-1,1.0582997E-1,-1.5529835E-1,-8.442092E-2,-1.0560518E-1,-1.9439844E-2,-2.571951E-1,-1.6491562E-1,-3.3477165E-2,2.9649077E-2,-8.397879E-3,-1.2093965E-1,-6.0726896E-2,-9.714269E-2,1.2576832E-2,-8.5553505E-2,-5.139555E-1,5.3236383E-1,1.2297403E-2,-5.88877E-2,1.02947E-1,-2.086295E-2,7.0392005E-3,9.869218E-2,2.712602E-2,-6.131878E-2,-5.8089774E-3,9.5112346E-2,-1.9443337E-2,4.1219693E-2],"split_indices":[3,3,7,1,6,7,7,6,4,4,8,7,0,2,8,0,0,4,2,0,0,0,0,9,1,0,0,9,6,0,0,0,0,0,0,0,0,0,0,0,0],"split_type":[0,0,0,0,0,0,0,0,0,0,0,0,0,0,0,0,0,0,0,0,0,0,0,0,0,0,0,0,0,0,0,0,0,0,0,0,0,0,0,0,0],"sum_hessian":[7.9409294E1,3.3605625E1,4.580367E1,2.5469036E1,8.136587E0,1.4467412E1,3.1336258E1,2.820484E0,2.2648554E1,2.308132E0,5.8284554E0,1.0371964E1,4.095447E0,5.697369E0,2.563889E1,1.6633475E0,1.1571364E0,1.8684036E1,3.9645169E0,1.0824543E0,1.2256775E0,1.4653213E0,4.363134E0,4.469602E0,5.9023623E0,1.3063425E0,4.3910265E0,6.3435936E0,1.9295296E1,1.3666675E1,5.017362E0,2.6127336E0,1.3517833E0,2.3553054E0,2.1142967E0,2.2671015E0,3.6352608E0,1.8144127E0,4.529181E0,1.5073614E1,4.2216806E0],"tree_param":{"num_deleted":"0","num_feature":"10","num_nodes":"41","size_leaf_vector":"0"}},{"base_weights":[3.2583144E-2,-6.111416E-3,5.6834817E-1,2.6530124E-2,-9.659143E-1,1.0720814E0,-1.2704642E-1,-3.24164E-2,8.389032E-1,1.7645994E-1,-3.571303E-1,-6.4604545E-1,1.2054053E-2,1.0761098E0,8.456099E-2,-9.1673005E-1,-9.158893E-2,7.074764E-1,-7.229999E-2],"categories":[],"categories_nodes":[],"categories_segments":[],"categories_sizes":[],"default_left":[true,true,true,true,false,false,true,true,true,false,false,true,true,false,false,false,false,false,false],"id":29,"left_children":[1,3,5,7,-1,-1,9,11,13,-1,-1,15,17,-1,-1,-1,-1,-1,-1],"loss_changes":[1.6945219E0,2.4400353E0,2.0645912E0,3.6428108E0,0E0,0E0,2.869446E-1,1.9550464E0,8.296566E-1,0E0,0E0,6.424844E-1,4.0118866E0,0E0,0E0,0E0,0E0,0E0,0E0],"parents":[2147483647,0,0,1,1,2,2,3,3,6,6,7,7,8,8,11,11,12,12],"right_children":[2,4,6,8,-1,-1,10,12,14,-1,-1,16,18,-1,-1,-1,-1,-1,-1],"split_conditions":[6.184361E-1,4.903949E-1,1.0639448E0,1.4429668E-1,-9.6591435E-2,1.0720815E-1,1.7203314E0,-1.0109409E-1,2.5458485E-1,1.7645994E-2,-3.571303E-2,-2.3594119E-1,-8.581358E-2,1.0761098E-1,8.456099E-3,-9.167301E-2,-9.1588935E-3,7.0747636E-2,-7.2299987E-3],"split_indices":[5,5,2,4,0,0,5,0,7,0,0,4,0,0,0,0,0,0,0],"split_type":[0,0,0,0,0,0,0,0,0,0,0,0,0,0,0,0,0,0,0],"sum_hessian":[8.0570244E1,7.6065186E1,4.5050626E0,7.450378E1,1.5614095E0,2.2984283E0,2.2066345E0,7.035859E1,4.145186E0,1.0519962E0,1.1546382E0,3.8403058E0,6.651828E1,2.8290303E0,1.3161559E0,2.1414626E0,1.6988431E0,6.396659E0,6.0121624E1],"tree_param":{"num_deleted":"0","num_feature":"10","num_nodes":"19","size_leaf_vector":"0"}},{"base_weights":[-8.978713E-2,-1.6345204E-1,2.5148708E-1,-7.854057E-2,-5.853964E-1,8.340443E-1,-1.6157314E-1,-1.2208917E-1,5.363487E-1,-8.4940296E-1,-3.3492044E-2,9.8395616E-1,3.883279E-2,-5.0364286E-1,3.4061706E-1,-5.71213E-1,-6.660948E-2,8.7189406E-1,3.7676885E-4,-2.7959466E-1,-9.60076E-1,5.961858E-1,-6.832284E-1,1.0884123E0,2.6646274E-1,-6.7972535E-1,1.6836217E-1,-3.1320477E-1,7.3324305E-1,-7.44959E-1,8.253082E-3,6.0823685E-1,-1.3870722E-1,-1.0958381E0,-3.6780617E-1,-2.5951257E-1,-8.582463E-1],"categories":[],"categories_nodes":[],"categories_segments":[],"categories_sizes":[],"default_left":[true,true,true,true,true,true,true,true,true,true,true,true,false,true,true,true,true,false,false,false,true,false,false,false,false,true,false,false,false,false,false,false,false,false,false,false,false],"id":30,"left_children":[1,3,5,7,9,11,13,15,17,19,21,23,-1,25,27,29,31,-1,-1,-1,33,-1,-1,-1,-1,35,-1,-1,-1,-1,-1,-1,-1,-1,-1,-1,-1],"loss_changes":[2.1076136E0,2.3979568E0,3.7411168E0,1.6169913E0,1.614028E0,7.2237253E-1,1.8218747E0,1.3304832E0,7.2220325E-1,2.0983171E-1,2.3255222E0,1.0922098E-1,0E0,8.383678E-1,1.3820196E0,6.0082686E-1,2.5179105E0,0E0,0E0,0E0,7.453823E-2,0E0,0E0,0E0,0E0,1.5582752E-1,0E0,0E0,0E0,0E0,0E0,0E0,0E0,0E0,0E0,0E0,0E0],"parents":[2147483647,0,0,1,1,2,2,3,3,4,4,5,5,6,6,7,7,8,8,9,9,10,10,11,11,13,13,14,14,15,15,16,16,20,20,25,25],"right_children":[2,4,6,8,10,12,14,16,18,20,22,24,-1,26,28,30,32,-1,-1,-1,34,-1,-1,-1,-1,36,-1,-1,-1,-1,-1,-1,-1,-1,-1,-1,-1],"split_conditions":[6.4019606E-2,-5.3710666E-2,8.174394E-2,-2.4185406E-2,-9.771006E-2,1.1154774E0,6.6818833E-1,-9.0538286E-2,-2.6757026E-2,-2.2038719E-1,-5.7830918E-3,3.311997E-2,3.8832792E-3,4.904656E-1,6.235417E-1,-1.1476531E-1,-8.556213E-2,8.7189406E-2,3.7676884E-5,-2.7959466E-2,-1.6363621E-1,5.961858E-2,-6.832284E-2,1.0884123E-1,2.6646275E-2,-3.0829716E-2,1.6836217E-2,-3.132048E-2,7.332431E-2,-7.4495904E-2,8.253082E-4,6.0823686E-2,-1.3870723E-2,-1.0958381E-1,-3.6780618E-2,-2.5951257E-2,-8.582463E-2],"split_indices":[8,8,7,7,2,8,6,0,0,5,3,2,0,2,8,8,0,0,0,0,5,0,0,0,0,2,0,0,0,0,0,0,0,0,0,0,0],"split_type":[0,0,0,0,0,0,0,0,0,0,0,0,0,0,0,0,0,0,0,0,0,0,0,0,0,0,0,0,0,0,0,0,0,0,0,0,0],"sum_hessian":[8.12002E1,6.721313E1,1.3987074E1,5.694062E1,1.0272509E1,5.3800983E0,8.606976E0,5.392305E1,3.0175729E0,6.583983E0,3.688526E0,4.327024E0,1.0530744E0,5.1179576E0,3.4890182E0,4.906626E0,4.9016422E1,1.4703234E0,1.5472493E0,1.6443317E0,4.9396515E0,1.9150325E0,1.7734934E0,3.3258636E0,1.0011603E0,4.0462484E0,1.0717089E0,1.3849716E0,2.1040466E0,3.5550818E0,1.3515446E0,4.013465E0,4.5002956E1,3.3268297E0,1.6128218E0,1.9380466E0,2.108202E0],"tree_param":{"num_deleted":"0","num_feature":"10","num_nodes":"37","size_leaf_vector":"0"}},{"base_weights":[-3.1335995E-2,-2.3773973E-1,9.807249E-2,1.3762845E-1,-4.551113E-1,-1.4628433E-1,2.3869915E-1,-4.0438908E-1,4.4646314E-1,4.955796E-1,-5.3831166E-1,-6.158218E-1,1.4744178E-2,8.8476324E-1,5.4593887E-2,5.858611E-1,-1.0972251E0,1.3744597E0,-2.2354375E-1,-1.0887475E0,-3.5519814E-1,-5.151531E-2,-9.35477E-1,1.7286947E-1,-4.587086E-1,8.128767E-2,1.1240821E0,-9.3550247E-1,1.7470631E-1,1.2659487E-1,-5.5754083E-1,2.3461062E-1,-6.5863615E-1,-2.2673655E-1,5.111355E-1,2.359025E-1,-7.763032E-1,1.2358878E0,3.3952647E-1,7.2486037E-1,-5.708803E-4],"categories":[],"categories_nodes":[],"categories_segments":[],"categories_sizes":[],"default_left":[true,true,true,true,true,true,true,true,true,false,true,true,true,true,true,false,false,false,true,false,true,false,false,true,true,false,true,false,true,false,false,false,false,false,false,false,false,false,false,false,false],"id":31,"left_children":[1,3,5,7,9,11,13,15,17,-1,19,21,23,25,27,-1,-1,-1,29,-1,31,-1,-1,33,35,-1,37,-1,39,-1,-1,-1,-1,-1,-1,-1,-1,-1,-1,-1,-1],"loss_changes":[2.1376848E0,2.5754776E0,1.7311583E0,2.199598E0,1.8277745E0,1.4192667E0,3.7235508E0,4.0065193E0,5.3801794E0,0E0,1.4906597E0,8.1518376E-1,1.1921431E0,1.2482457E0,3.2250404E0,0E0,0E0,0E0,7.252629E-1,0E0,2.9215581E0,0E0,0E0,1.7203186E0,1.0645196E0,0E0,4.440832E-2,0E0,2.2956092E0,0E0,0E0,0E0,0E0,0E0,0E0,0E0,0E0,0E0,0E0,0E0,0E0],"parents":[2147483647,0,0,1,1,2,2,3,3,4,4,5,5,6,6,7,7,8,8,10,10,11,11,12,12,13,13,14,14,18,18,20,20,23,23,24,24,26,26,28,28],"right_children":[2,4,6,8,10,12,14,16,18,-1,20,22,24,26,28,-1,-1,-1,30,-1,32,-1,-1,34,36,-1,38,-1,40,-1,-1,-1,-1,-1,-1,-1,-1,-1,-1,-1,-1],"split_conditions":[-2.0550811E-1,-1.1483204E-1,-1.14785254E-1,-1.6758548E-1,-2.5131923E-1,-2.6314574E-1,-1.587227E-1,-2.8899047E-1,-1.6565984E-1,4.955796E-2,-2.470249E-1,-1.2062299E-1,-1.4410213E-1,-2.589664E-1,-1.5478449E-1,5.858611E-2,-1.0972251E-1,1.3744597E-1,-3.736168E-1,-1.0887475E-1,-2.2835663E-1,-5.151531E-3,-9.35477E-2,-1.596408E-1,-1.807291E-1,8.128767E-3,-1.05450936E-1,-9.355025E-2,-6.645123E-2,1.2659487E-2,-5.5754084E-2,2.3461062E-2,-6.586362E-2,-2.2673655E-2,5.1113553E-2,2.359025E-2,-7.763032E-2,1.2358878E-1,3.395265E-2,7.2486036E-2,-5.7088033E-5],"split_indices":[9,1,1,2,3,4,2,9,2,0,3,1,2,4,2,0,0,0,9,0,3,0,0,9,1,0,1,0,1,0,0,0,0,0,0,0,0,0,0,0,0],"split_type":[0,0,0,0,0,0,0,0,0,0,0,0,0,0,0,0,0,0,0,0,0,0,0,0,0,0,0,0,0,0,0,0,0,0,0,0,0,0,0,0,0],"sum_hessian":[7.815903E1,2.9796741E1,4.8362286E1,1.1061697E1,1.8735044E1,1.7651066E1,3.0711218E1,3.902771E0,7.158926E0,1.108804E0,1.7626242E1,3.786331E0,1.3864735E1,5.966781E0,2.4744436E1,1.6701194E0,2.2326515E0,2.5607433E0,4.5981827E0,3.165388E0,1.4460853E1,1.7890944E0,1.9972365E0,1.086941E1,2.9953256E0,1.6768112E0,4.28997E0,1.9426295E0,2.2801807E1,2.548006E0,2.0501766E0,4.9894385E0,9.471414E0,5.134063E0,5.735347E0,1.0205349E0,1.9747907E0,3.2513537E0,1.0386163E0,4.7517304E0,1.8050077E1],"tree_param":{"num_deleted":"0","num_feature":"10","num_nodes":"41","size_leaf_vector":"0"}},{"base_weights":[4.001727E-2,7.538718E-1,4.2585433E-3,-7.8681725E-1,3.6220446E-2,4.6708817E-3,6.74519E-1,8.40049E-2,-3.4011668E-1,1.2058434E-2,8.879559E-1,-5.3693676E-1,1.447689E-1],"categories":[],"categories_nodes":[],"categories_segments":[],"categories_sizes":[],"default_left":[true,false,true,false,true,true,false,true,true,false,false,false,false],"id":32,"left_children":[1,-1,3,-1,5,7,-1,9,11,-1,-1,-1,-1],"loss_changes":[2.0654807E0,0E0,2.0052402E0,0E0,1.5293653E0,2.0396802E0,0E0,3.4928799E0,1.4091437E0,0E0,0E0,0E0,0E0],"parents":[2147483647,0,0,2,2,4,4,5,5,7,7,8,8],"right_children":[2,-1,4,-1,6,8,-1,10,12,-1,-1,-1,-1],"split_conditions":[-2.8806788E-1,7.538718E-2,-2.587559E-1,-7.868173E-2,1.3628592E0,-1.6820047E-2,6.74519E-2,-4.813987E-2,2.2467323E-1,1.2058434E-3,8.8795595E-2,-5.369368E-2,1.447689E-2],"split_indices":[5,0,5,0,5,6,0,7,1,0,0,0,0],"split_type":[0,0,0,0,0,0,0,0,0,0,0,0,0],"sum_hessian":[8.004083E1,2.8602018E0,7.718063E1,2.08008E0,7.510055E1,7.252322E1,2.5773306E0,5.9572273E1,1.2950947E1,5.5610615E1,3.9616568E0,9.135432E0,3.8155143E0],"tree_param":{"num_deleted":"0","num_feature":"10","num_nodes":"13","size_leaf_vector":"0"}},{"base_weights":[4.6714716E-2,3.9058316E-1,-1.3230481E-2,-1.83899E-1,8.497404E-1,-3.8148854E-2,7.457094E-1,-7.6522744E-1,2.0325203E-1,1.0954407E0,-1.5078227E-1,9.881042E-3,-6.9731903E-1,5.7193947E-1,-4.7852924E-1,-9.549756E-3,5.572129E-1,6.924439E-1,1.569818E-1,2.2913681E-2,-8.393694E-1],"categories":[],"categories_nodes":[],"categories_segments":[],"categories_sizes":[],"default_left":[true,true,true,true,true,true,false,false,true,false,false,true,false,true,false,true,false,false,false,false,false],"id":33,"left_children":[1,3,5,7,9,11,-1,-1,13,-1,-1,15,-1,17,-1,19,-1,-1,-1,-1,-1],"loss_changes":[1.6313382E0,3.2540007E0,1.3171904E0,1.5146418E0,1.8134336E0,2.1259115E0,0E0,0E0,1.3834436E0,0E0,0E0,6.7928E-1,0E0,5.7359934E-2,0E0,1.6943345E0,0E0,0E0,0E0,0E0,0E0],"parents":[2147483647,0,0,1,1,2,2,3,3,4,4,5,5,8,8,11,11,13,13,15,15],"right_children":[2,4,6,8,10,12,-1,-1,14,-1,-1,16,-1,18,-1,20,-1,-1,-1,-1,-1],"split_conditions":[-8.583123E-2,-2.3913506E-1,1.9700606E0,-1.739819E-1,7.917015E-1,6.007699E-1,7.457095E-2,-7.6522745E-2,-2.4629335E-1,1.09544076E-1,-1.5078227E-2,4.4799894E-1,-6.9731906E-2,-1.1364878E-1,-4.7852926E-2,4.6961245E-1,5.572129E-2,6.924439E-2,1.569818E-2,2.291368E-3,-8.3936945E-2],"split_indices":[0,3,8,2,7,7,0,0,3,0,0,6,0,8,0,5,0,0,0,0,0],"split_type":[0,0,0,0,0,0,0,0,0,0,0,0,0,0,0,0,0,0,0,0,0],"sum_hessian":[7.7889534E1,1.07437315E1,6.71458E1,5.0388174E0,5.704914E0,6.593082E1,1.2149811E0,1.6238929E0,3.4149244E0,4.5039916E0,1.2009226E0,6.23712E1,3.5596163E0,2.3209386E0,1.0939858E0,6.1181744E1,1.1894575E0,1.2803986E0,1.04054E0,5.9814137E1,1.3676063E0],"tree_param":{"num_deleted":"0","num_feature":"10","num_nodes":"21","size_leaf_vector":"0"}},{"base_weights":[-5.450305E-2,-1.11966714E-1,3.492183E-1,3.032948E-1,-1.5505025E-1,7.046976E-1,-2.0907126E-1,1.0478348E0,-2.5155574E-1,-1.8723696E-1,7.067669E-1,9.1877115E-1,-2.3609245E-1,-4.7186542E-1,2.165814E-1,-6.150408E-1,4.129803E-1,-1.3003534E-1,-9.4359684E-1,1.0486068E0,1.7611238E-1,-3.226867E-1,2.8369537E-2],"categories":[],"categories_nodes":[],"categories_segments":[],"categories_sizes":[],"default_left":[true,true,true,true,true,true,true,false,true,true,false,true,false,false,false,false,false,true,false,false,false,false,false],"id":34,"left_children":[1,3,5,7,9,11,13,-1,15,17,-1,19,-1,-1,-1,-1,-1,21,-1,-1,-1,-1,-1],"loss_changes":[1.9155015E0,1.3273213E0,2.195572E0,3.1821535E0,1.9491367E0,1.532943E0,6.375763E-1,0E0,1.4266052E0,2.643177E0,0E0,3.4831953E-1,0E0,0E0,0E0,0E0,0E0,1.8582883E0,0E0,0E0,0E0,0E0,0E0],"parents":[2147483647,0,0,1,1,2,2,3,3,4,4,5,5,6,6,8,8,9,9,11,11,17,17],"right_children":[2,4,6,8,10,12,14,-1,16,18,-1,20,-1,-1,-1,-1,-1,22,-1,-1,-1,-1,-1],"split_conditions":[1.4429668E-1,-2.5194716E-1,1.010235E0,-1.2573221E-1,1.8469411E-1,5.938949E-1,1.819063E0,1.04783475E-1,-2.6077133E-1,2.7788095E-2,7.067669E-2,1.1442008E0,-2.3609245E-2,-4.7186542E-2,2.1658141E-2,-6.1504077E-2,4.1298028E-2,-2.3839876E-1,-9.435969E-2,1.0486068E-1,1.761124E-2,-3.226867E-2,2.8369536E-3],"split_indices":[4,3,3,8,2,0,3,0,4,2,0,7,0,0,0,0,0,3,0,0,0,0,0],"split_type":[0,0,0,0,0,0,0,0,0,0,0,0,0,0,0,0,0,0,0,0,0,0,0],"sum_hessian":[7.988176E1,7.056111E1,9.320649E0,6.064888E0,6.449622E1,5.534456E0,3.7861936E0,2.2103612E0,3.8545268E0,6.2928734E1,1.5674891E0,4.527617E0,1.006839E0,2.2738004E0,1.5123932E0,2.5397995E0,1.3147274E0,5.959373E1,3.3350046E0,3.5032046E0,1.024412E0,2.6422134E1,3.3171597E1],"tree_param":{"num_deleted":"0","num_feature":"10","num_nodes":"23","size_leaf_vector":"0"}},{"base_weights":[-1.953217E-2,7.650669E-2,-3.7151843E-1,-1.8159498E-1,1.9381882E-1,1.612984E-1,-5.7789975E-1,1.9891942E-1,-3.9248127E-1,8.2968616E-1,1.0588863E-1,-3.0295464E-1,8.292308E-1,-7.1882117E-1,3.9853075E-1,-5.751268E-1,4.0029737E-1,-2.279368E-2,-6.6244525E-1,2.3019911E-1,1.0921115E0,-2.8845295E-1,2.5647894E-1,-7.622031E-1,4.4207183E-1,-1.2637691E-1,-7.6509005E-1,6.2069523E-1,-4.3003884E-1,-4.0082735E-1,6.844199E-1,-1.623888E-2,-7.770145E-1,1.8147841E-1,-6.9753766E-1,4.1892603E-1,3.7751354E-2,-1.0350432E0,-5.2807E-1],"categories":[],"categories_nodes":[],"categories_segments":[],"categories_sizes":[],"default_left":[true,true,true,true,true,true,true,true,true,true,true,true,false,true,false,false,true,true,true,false,false,true,true,false,false,false,true,false,false,false,false,false,false,false,false,false,false,false,false],"id":35,"left_children":[1,3,5,7,9,11,13,15,17,19,21,23,-1,25,-1,-1,27,29,31,-1,-1,33,35,-1,-1,-1,37,-1,-1,-1,-1,-1,-1,-1,-1,-1,-1,-1,-1],"loss_changes":[2.7552414E0,1.9791522E0,2.0134048E0,1.7294229E0,2.4071488E0,2.0054395E0,2.0484314E0,1.4775083E0,1.3399165E0,5.784323E-1,2.470068E0,1.7294545E0,0E0,2.1982384E-1,0E0,0E0,1.5368681E0,2.0831707E0,5.6568813E-1,0E0,0E0,2.3606267E0,1.0404705E0,0E0,0E0,0E0,1.2604952E-1,0E0,0E0,0E0,0E0,0E0,0E0,0E0,0E0,0E0,0E0,0E0,0E0],"parents":[2147483647,0,0,1,1,2,2,3,3,4,4,5,5,6,6,7,7,8,8,9,9,10,10,11,11,13,13,16,16,17,17,18,18,21,21,22,22,26,26],"right_children":[2,4,6,8,10,12,14,16,18,20,22,24,-1,26,-1,-1,28,30,32,-1,-1,34,36,-1,-1,-1,38,-1,-1,-1,-1,-1,-1,-1,-1,-1,-1,-1,-1],"split_conditions":[4.49474E-3,-1.7460664E-1,-1.2181074E-1,-2.418542E-1,-1.699428E-1,-4.0141277E-2,1.3685982E0,-9.11859E-1,-2.0466833E-1,-2.3748901E-1,-2.2987518E-1,-2.5328597E-1,8.292308E-2,-2.3667893E-1,3.9853077E-2,-5.7512682E-2,-5.9578605E-2,-2.5143766E-1,-3.023116E-1,2.3019912E-2,1.0921115E-1,-2.3478767E-1,-1.721974E-1,-7.622031E-2,4.420718E-2,-1.2637692E-2,-4.1119598E-2,6.2069524E-2,-4.3003883E-2,-4.0082734E-2,6.844199E-2,-1.6238879E-3,-7.770145E-2,1.8147841E-2,-6.9753766E-2,4.1892603E-2,3.7751354E-3,-1.0350432E-1,-5.2807E-2],"split_indices":[1,7,9,6,7,6,4,9,9,6,5,9,0,6,0,0,1,4,7,0,0,5,5,0,0,0,7,0,0,0,0,0,0,0,0,0,0,0,0],"split_type":[0,0,0,0,0,0,0,0,0,0,0,0,0,0,0,0,0,0,0,0,0,0,0,0,0,0,0,0,0,0,0,0,0,0,0,0,0,0,0],"sum_hessian":[7.966468E1,6.32026E1,1.646208E1,1.957879E1,4.3623806E1,4.657139E0,1.180494E1,7.001794E0,1.2576998E1,4.2748055E0,3.9349003E1,3.0698433E0,1.5872958E0,1.0546644E1,1.2582959E0,1.0623666E0,5.939427E0,5.7657857E0,6.8112116E0,1.8730924E0,2.4017131E0,1.0620988E1,2.8728014E1,1.8849E0,1.1849432E0,1.0343095E0,9.512335E0,4.893115E0,1.0463121E0,4.0396585E0,1.7261274E0,1.1976768E0,5.613535E0,5.2018275E0,5.4191604E0,1.5959639E1,1.2768374E1,2.8731115E0,6.6392236E0],"tree_param":{"num_deleted":"0","num_feature":"10","num_nodes":"39","size_leaf_vector":"0"}},{"base_weights":[1.1357345E-2,-2.814764E-1,8.288449E-2,5.1132184E-1,-4.5453858E-1,3.750899E-1,3.4400849E-3,-7.087581E-2,8.0452E-1,-6.234372E-1,3.2887942E-1,-3.1479204E-1,5.6108516E-1,-4.570942E-1,7.540272E-2,-7.258935E-1,1.3127315E-1,2.0384707E-1,-6.1063546E-1,1.3904859E-1,9.3734884E-1,-9.723335E-2,-6.654282E-1,6.919828E-1,2.1209203E-2,1.1293827E-1,-8.446208E-1,8.638959E-1,-2.5320968E-1,1.9782434E-1,1.1066813E0,-6.044411E-1,3.6736622E-1,-9.292763E-1,7.756609E-2,1.0507991E0,-7.8392565E-2,6.3732386E-1,-2.5854502E-2],"categories":[],"categories_nodes":[],"categories_segments":[],"categories_sizes":[],"default_left":[true,true,true,true,true,true,true,false,false,true,false,true,true,true,true,true,false,false,false,true,true,true,true,true,true,false,false,false,false,false,false,false,false,false,false,false,false,false,false],"id":36,"left_children":[1,3,5,7,9,11,13,-1,-1,15,-1,17,19,21,23,25,-1,-1,-1,27,29,31,33,35,37,-1,-1,-1,-1,-1,-1,-1,-1,-1,-1,-1,-1,-1,-1],"loss_changes":[1.6477715E0,2.3525186E0,1.4635911E0,6.099725E-1,1.9533479E0,1.9062773E0,1.7121885E0,0E0,0E0,9.624796E-1,0E0,6.6197276E-1,1.6127293E0,4.5881796E-1,1.4769676E0,1.0940552E0,0E0,0E0,0E0,2.0236106E0,4.859481E-1,1.1013707E0,9.0552485E-1,1.0705869E0,1.2362338E0,0E0,0E0,0E0,0E0,0E0,0E0,0E0,0E0,0E0,0E0,0E0,0E0,0E0,0E0],"parents":[2147483647,0,0,1,1,2,2,3,3,4,4,5,5,6,6,9,9,11,11,12,12,13,13,14,14,15,15,19,19,20,20,21,21,22,22,23,23,24,24],"right_children":[2,4,6,8,10,12,14,-1,-1,16,-1,18,20,22,24,26,-1,-1,-1,28,30,32,34,36,38,-1,-1,-1,-1,-1,-1,-1,-1,-1,-1,-1,-1,-1,-1],"split_conditions":[-3.564734E-1,-4.6620643E-1,-1.3162443E-1,-1.0855384E0,-1.34273E-1,-2.6970392E-1,-1.19230166E-1,-7.087581E-3,8.0452E-2,-4.3083936E-2,3.2887943E-2,-2.2113559E-1,-2.1106176E-1,-1.7058285E-1,-1.1540209E-1,-2.515894E-1,1.3127315E-2,2.0384707E-2,-6.1063547E-2,-1.6561134E-1,-7.186285E-1,-1.7731398E-1,-1.5978284E-1,-1.8261093E-1,-1.6279727E-1,1.1293828E-2,-8.4462084E-2,8.6389594E-2,-2.5320968E-2,1.9782435E-2,1.1066814E-1,-6.0444113E-2,3.6736622E-2,-9.292763E-2,7.756609E-3,1.0507991E-1,-7.839257E-3,6.3732386E-2,-2.5854502E-3],"split_indices":[9,8,8,8,8,7,8,0,0,0,0,5,9,7,8,3,0,0,0,2,8,7,7,9,1,0,0,0,0,0,0,0,0,0,0,0,0,0,0],"split_type":[0,0,0,0,0,0,0,0,0,0,0,0,0,0,0,0,0,0,0,0,0,0,0,0,0,0,0,0,0,0,0,0,0,0,0,0,0,0,0],"sum_hessian":[7.65554E1,1.4452264E1,6.210313E1,2.2393303E0,1.2212934E1,1.2479761E1,4.962337E1,1.0039914E0,1.2353388E0,1.0214893E1,1.9980407E0,2.503067E0,9.976694E0,5.9829392E0,4.364043E1,9.027536E0,1.1873568E0,1.0221366E0,1.4809304E0,5.3478374E0,4.6288567E0,2.7314875E0,3.251452E0,2.5749958E0,4.1065437E1,1.1253661E0,7.90217E0,1.4556333E0,3.8922043E0,1.266396E0,3.3624606E0,1.1619653E0,1.5695223E0,2.214377E0,1.037075E0,1.5084147E0,1.066581E0,2.0242388E0,3.9041195E1],"tree_param":{"num_deleted":"0","num_feature":"10","num_nodes":"39","size_leaf_vector":"0"}},{"base_weights":[-9.970265E-3,2.9138103E-1,-6.1282117E-2,-1.2777132E-1,6.7356706E-1,-4.444589E-1,3.18413E-2,3.221281E-1,-4.8961774E-1,-8.129636E-2,9.3661183E-1,2.2138661E-1,-5.931476E-1,5.782964E-1,-2.0774925E-2,-7.342956E-2,6.558677E-1,5.464673E-2,-7.318859E-1,1.1558454E0,1.7330757E-1,-3.5816106E-1,6.435251E-1,-2.3397473E-1,-7.9465324E-1,-1.2874755E-1,8.581049E-1,-8.0774146E-1,1.5022048E-2,-4.3061283E-1,2.3591535E-1,-1.0082949E0,-2.7118066E-1,2.8757414E-1,-8.5047565E-2],"categories":[],"categories_nodes":[],"categories_segments":[],"categories_sizes":[],"default_left":[true,true,true,true,true,true,true,true,true,false,true,true,true,true,true,false,false,false,false,false,false,false,false,true,true,false,false,false,true,false,false,false,false,false,false],"id":37,"left_children":[1,3,5,7,9,11,13,15,17,-1,19,21,23,25,27,-1,-1,-1,-1,-1,-1,-1,-1,29,31,-1,-1,-1,33,-1,-1,-1,-1,-1,-1],"loss_changes":[1.3009893E0,2.0480275E0,2.5738173E0,1.2454749E0,1.3798368E0,1.5264614E0,1.6981168E0,5.209857E-1,5.806281E-1,0E0,6.2783146E-1,1.0379742E0,6.674681E-1,1.1363022E0,1.5462416E0,0E0,0E0,0E0,0E0,0E0,0E0,0E0,0E0,6.2410426E-1,5.246539E-1,0E0,0E0,0E0,1.4718812E0,0E0,0E0,0E0,0E0,0E0,0E0],"parents":[2147483647,0,0,1,1,2,2,3,3,4,4,5,5,6,6,7,7,8,8,10,10,11,11,12,12,13,13,14,14,23,23,24,24,28,28],"right_children":[2,4,6,8,10,12,14,16,18,-1,20,22,24,26,28,-1,-1,-1,-1,-1,-1,-1,-1,30,32,-1,-1,-1,34,-1,-1,-1,-1,-1,-1],"split_conditions":[-2.4158496E-1,-3.1661856E-1,-1.7508698E-1,-2.644837E-1,-2.5062984E-1,-2.947533E-1,-1.7131516E-1,-5.4193366E-1,-3.9824396E-1,-8.129637E-3,-2.0664905E-1,-1.0506155E0,-2.464897E-1,-2.3748901E-1,-2.380597E-1,-7.3429565E-3,6.558677E-2,5.464673E-3,-7.3188595E-2,1.15584545E-1,1.7330756E-2,-3.5816107E-2,6.435251E-2,-2.5014323E-1,-2.082488E-1,-1.2874755E-2,8.581049E-2,-8.077415E-2,-2.0898843E-1,-4.3061282E-2,2.3591535E-2,-1.008295E-1,-2.7118066E-2,2.8757414E-2,-8.504757E-3],"split_indices":[6,6,7,5,3,7,7,7,7,0,3,8,3,6,6,0,0,0,0,0,0,0,0,3,6,0,0,0,6,0,0,0,0,0,0],"split_type":[0,0,0,0,0,0,0,0,0,0,0,0,0,0,0,0,0,0,0,0,0,0,0,0,0,0,0,0,0,0,0,0,0,0,0],"sum_hessian":[8.198142E1,1.12474165E1,7.073401E1,5.6817694E0,5.565647E0,1.3091862E1,5.7642143E1,2.581653E0,3.1001163E0,1.6168085E0,3.9488382E0,2.3005955E0,1.0791266E1,4.1851974E0,5.3456947E1,1.5383438E0,1.0433095E0,1.1934419E0,1.9066745E0,2.6682167E0,1.2806216E0,1.0334048E0,1.2671907E0,4.6550407E0,6.1362257E0,1.339729E0,2.8454685E0,1.3875827E0,5.2069363E1,3.340646E0,1.3143948E0,3.7000012E0,2.4362247E0,1.348031E1,3.8589054E1],"tree_param":{"num_deleted":"0","num_feature":"10","num_nodes":"35","size_leaf_vector":"0"}},{"base_weights":[3.9988153E-2,7.356012E-1,-3.2495337E-3,-4.539854E-2,1.0813587E0,-7.394922E-1,2.9771416E-2,9.517015E-1,1.5678897E-3,-1.7959319E-1,1.0592477E-1,2.2039313E-2,-4.9066156E-1,1.774583E-1,-3.5823706E-1],"categories":[],"categories_nodes":[],"categories_segments":[],